/**
  ******************************************************************************
  * @file    weights/conv1d.cc
  * @author  Pierre-Emmanuel Novac <penovac@unice.fr>, LEAT, CNRS, Université Côte d'Azur, France
  * @version 1.0.0
  * @date    24 march 2020
  * @brief   Template generating plain C code for the implementation of Convolutional Neural Networks on MCU
  */

#include <stdint.h>

#define INPUT_CHANNELS    32
#define CONV_FILTERS      64
#define CONV_KERNEL_SIZE  3


const int16_t  conv1d_2_bias[CONV_FILTERS] = {14, -91, -76, 88, 64, 101, 13, 25, -55, -56, 26, -32, 57, 72, 41, 22, 3, -19, 32, -52, 19, -32, 43, 76, 103, 73, 47, 26, 84, 86, 1, -104, -8, 52, 52, 14, -10, 54, 60, 32, -92, 102, 110, 25, -21, 59, -2, -73, 76, -2, -81, 3, 63, 75, 98, -64, 2, -67, -22, 66, -82, -7, -28, 47}
;

const int16_t  conv1d_2_kernel[CONV_FILTERS][CONV_KERNEL_SIZE][INPUT_CHANNELS] = {{{48, 39, -93, 61, -53, -55, 16, -110, 48, -25, -13, -111, 68, 21, -71, -52, -15, -24, -85, -29, -151, 12, -59, 10, -19, -38, -99, 41, -162, -58, -31, -47}
, {-59, -23, -45, -14, 8, -54, -6, 143, 25, -18, -6, -76, -41, 22, -78, 69, -16, -101, 59, 113, -86, 101, 39, 42, -28, -24, -63, 25, 43, -61, 50, -26}
, {-84, -4, 85, -103, -19, 20, -103, 49, 23, -47, -12, -65, 5, 55, -33, -6, -36, -27, 21, 154, -96, -68, 2, -19, 81, -7, -50, -34, 24, 1, -75, 52}
}
, {{-16, 43, -83, 1, -108, -67, -82, -86, -12, 52, -54, -218, -8, -17, -112, -185, -26, -7, 17, -57, -101, -91, -140, 89, -3, 26, -23, -175, -13, -81, 76, 25}
, {19, 68, -45, 39, 50, 91, -71, -58, 85, 29, -114, -134, 5, 84, -15, 8, -104, -23, -148, 37, -20, 9, -79, 4, -7, 44, -51, -23, -58, -89, 8, 81}
, {26, -6, -68, -58, 54, 40, -67, -2, 15, -27, -90, 57, -14, 34, -17, 141, -69, -5, 0, -17, 18, 105, 13, -29, 4, 86, -63, 8, -29, -102, 82, 115}
}
, {{-212, 10, 117, 35, 22, -104, -180, -33, 138, -148, -190, -182, -54, 24, -26, -41, -256, -32, 25, 142, -74, 37, -29, -23, 109, 59, -186, -2, 56, -155, 43, 41}
, {-85, 67, -63, -128, -40, 63, -74, -7, 129, -58, -9, 46, -114, 136, -133, -38, -64, 75, -208, -17, 11, 9, -68, -57, 64, 132, -4, 121, -47, -74, -42, 99}
, {18, 35, 16, 113, 166, -118, 10, 3, -2, -16, 64, 148, -101, -2, -60, 21, 2, -80, 79, 24, 30, 40, 5, -62, 25, 54, 81, -12, 69, -66, 51, -10}
}
, {{126, -30, -74, -60, 80, 46, 41, 34, -18, 30, -69, 90, -14, 29, -47, 144, -15, -38, -56, -46, 7, 110, -18, -74, 6, -62, 47, 105, 48, -35, -38, 213}
, {33, 64, -56, -3, 21, -88, 29, 55, -20, 53, -41, -36, 69, 63, -81, 62, -70, 36, -13, -59, -25, 24, -14, -88, -107, -33, 39, 102, 33, -78, -2, -68}
, {-241, -66, 11, -84, -207, -44, -67, -136, 54, 3, 94, -205, -76, -21, -109, -50, -60, -161, -48, 100, -48, 15, -26, -3, 82, 112, -237, -16, -70, 145, 22, -181}
}
, {{-45, -23, -55, 2, 9, 72, -13, -28, 46, -53, 69, 0, -33, -52, -82, 51, 42, -39, 101, -3, 57, -34, 147, -51, -34, -76, 42, 57, 66, 141, -28, 37}
, {77, -45, -8, -5, -58, -46, -37, 32, 3, -2, -35, 64, -32, -53, -20, -69, -58, -38, 10, 35, -63, 43, -53, 24, -3, 14, -51, 9, 58, -14, 17, -32}
, {68, -38, 137, 50, -103, 170, -92, -82, -58, 103, -107, -45, 91, 15, -9, 159, 24, -108, -64, 45, 4, 40, -57, 49, 47, 46, -77, -66, -97, 142, -59, 82}
}
, {{-48, 55, 102, -72, -104, 30, -128, -77, -241, 240, -110, -46, 32, -103, -13, -72, 16, 1, -245, -55, -6, -194, -109, 8, -137, 136, -31, -46, -179, -70, -41, -8}
, {-123, -48, -34, -136, -88, -14, -101, -15, -132, 70, -118, 34, -8, 7, 37, 63, -56, 29, 10, -38, 140, -98, 95, -18, -91, 51, -39, 29, -14, 90, -72, 133}
, {39, -33, -13, 4, 43, -5, -31, 30, -2, -10, 29, 16, -22, 48, -6, 9, -142, 14, 8, -68, -43, -85, 77, -159, 133, 97, 174, 64, 142, -12, 122, -73}
}
, {{42, -79, 62, 38, 28, -50, -17, -16, -26, -102, -53, 55, 34, -41, -91, 8, -93, 13, -31, -76, 33, -76, 46, -81, 72, -38, 29, 16, 71, -12, 29, 20}
, {-66, -68, 54, -33, 36, -47, 8, 93, 60, 33, 19, 136, -43, -48, -110, 55, -138, -11, 16, -9, 35, -60, 21, 6, -59, 25, 95, -54, 98, -49, -33, 37}
, {-226, 18, 90, -29, -52, -19, -47, -27, 172, -40, 3, -78, -30, 56, -196, -67, 45, -180, 69, 94, -148, -110, 6, 15, -36, -62, -11, -23, 88, 0, -50, -71}
}
, {{-171, 87, 6, 9, -166, 13, -66, 87, -67, -149, -12, -160, -75, -88, 25, -106, -22, -9, -39, -70, 19, -16, -85, 73, -210, 59, 18, 19, 8, -88, 33, 91}
, {-5, 60, 2, -16, 105, -16, -40, 22, -6, 41, 16, 39, -3, -19, 42, -16, 153, -42, 2, -31, -41, -129, 47, -16, -89, -11, 56, 23, 31, 82, -51, -66}
, {-119, -66, -141, 11, 87, 67, -18, -123, 84, 21, 19, 18, -55, 16, 7, 14, 32, -121, 61, -13, -108, -24, -21, 127, 116, -32, -61, -74, -12, -43, 83, -46}
}
, {{19, -37, -143, 57, 57, -62, 21, -8, 87, -61, 108, 2, 12, 155, -109, 120, -208, -44, -6, 209, -6, 265, -27, 6, 147, 108, 22, -49, 14, -103, -13, 119}
, {-23, 91, 57, 43, 9, -113, -60, 109, -61, -40, -144, 62, 3, -75, -90, -103, -56, 26, 35, 119, -113, 68, -169, 63, 21, -76, -34, 50, -57, 3, -119, 35}
, {-99, 85, -73, -75, 52, -61, -65, 123, 72, -108, -21, 84, -22, 16, -356, 89, -232, -100, -221, 113, -37, 139, -16, 24, -26, -17, -20, 52, 71, 67, 65, 79}
}
, {{-98, 129, -33, -12, 3, 11, -40, 125, -22, -20, -97, 37, -43, -17, -31, 94, -72, -85, 22, -46, -44, -19, -99, 39, -83, -61, -36, 148, 84, -57, 5, 111}
, {30, -15, 82, 5, -54, 115, -97, -44, -19, -87, -31, -27, -46, -30, -57, 52, -16, 77, -139, -70, -17, -114, 120, -1, -95, 121, -76, 75, 51, -93, 82, -41}
, {-22, -144, -130, 47, -54, 32, 28, -244, 42, -55, 126, -178, -10, 111, 144, -61, 83, 79, 2, 10, 21, -51, -9, -143, 14, 63, 78, -108, -7, -78, 112, 30}
}
, {{-92, 63, 14, 101, -197, -38, -57, 7, -84, -34, 2, -64, 42, -18, -35, -3, -30, -54, -39, -10, -44, 129, -116, -174, -112, -8, 34, -85, -82, 40, -2, -16}
, {7, -50, 25, -20, -18, 24, -84, 1, -32, 73, -113, -6, 69, -43, 38, 91, 18, 99, -33, 4, -28, 52, 120, -70, 1, 6, -18, -5, 97, 95, 78, 52}
, {-284, -33, 70, 113, 28, -94, -91, -65, 3, 66, 92, -136, -4, 86, 105, 17, 30, -26, 67, 17, -4, -20, -16, -22, 66, 61, 41, 21, -29, 28, -116, -67}
}
, {{4, 43, 15, -65, 26, 131, -32, -17, 20, -81, -104, -18, -19, -84, -113, -29, -22, 32, -27, -96, 37, -57, 78, 82, 75, 46, -40, -31, 120, -71, 48, 53}
, {-85, -1, 69, -5, -84, 169, -44, -220, -14, -74, -78, -161, -37, -20, -21, 34, -3, 100, 63, -44, 74, -24, 102, 13, 107, -3, -52, -125, 35, 68, -5, 10}
, {-146, -52, -65, 35, -97, -25, 18, -175, -42, -80, -54, -27, -1, 20, 14, 2, -66, -12, -36, 14, -19, -16, 108, -22, -78, -12, -63, -140, 44, 4, 60, 77}
}
, {{-62, 22, -1, 19, -30, 74, -146, -7, 95, 1, -80, 40, 66, 42, -39, 111, -97, 0, 48, 106, -3, -54, 81, -48, 56, 16, -20, -12, 161, 99, 123, 68}
, {-49, 54, -107, -44, -61, 2, -103, -91, 26, -58, -120, 60, -77, -45, 29, -31, -174, 36, -3, -94, 11, -65, -102, 9, 18, 27, 29, -9, -24, -66, -25, -69}
, {28, -19, -71, 89, 55, 4, -127, 85, -20, -28, -37, -12, 41, 116, 27, 125, -168, 10, -18, 38, 0, 25, -35, -130, -74, 18, 37, -54, 15, 51, 5, 73}
}
, {{19, -98, 34, -83, 64, -29, -95, 25, -87, -85, -30, 116, 13, -88, -43, 18, 60, 75, 61, -115, 53, -163, 148, 109, -32, -112, 76, 89, 59, -85, 35, 86}
, {39, -46, 34, -83, -108, 49, 74, 29, -93, 26, -1, 68, 33, 4, 38, -24, 49, 78, -78, -155, 49, -94, 63, -113, -144, -34, -98, 34, 81, -2, 28, -29}
, {-85, -41, 41, 5, -96, -31, -63, -117, -99, -79, -102, -4, 26, 62, 8, 7, -78, -116, 33, -25, 5, -84, -16, 25, -29, 4, -156, -78, 8, 8, 19, -136}
}
, {{-142, 122, -54, -147, 34, 109, -41, -6, 127, -94, -82, -91, 45, 12, -65, 130, -16, -78, -232, 136, -25, -86, -98, -69, -38, 49, 85, -18, -39, -151, -60, 128}
, {-67, 0, 60, 50, 85, -12, -72, -4, -5, 40, -84, -19, -53, 34, 75, -102, 53, -166, 24, 0, 11, -99, -56, 28, 14, 49, -17, -107, -75, 1, 3, 35}
, {37, 21, 13, 39, 58, 75, -116, -163, 13, 68, -24, -55, -31, 117, 48, 56, 29, -91, -52, 93, 35, -60, -55, -35, 32, 80, -5, -152, -129, -26, -16, -64}
}
, {{-147, 1, -39, -25, -82, -51, -82, -91, -75, -167, 84, -42, -119, -66, 39, -213, -95, 105, 33, -86, 55, -108, 10, -21, -68, 7, -23, 24, 78, -39, 3, 8}
, {-135, -41, 20, 50, -6, -49, -72, -8, 6, -115, 54, 39, 27, -20, 24, -82, -51, 0, -3, 3, -36, -216, -20, 46, -54, -22, -7, -27, 215, 31, -97, -14}
, {5, -4, -14, -25, 87, 14, 70, 59, 16, -51, 37, 105, -35, -1, -2, -1, -81, -107, 104, -34, -69, -28, 108, -88, -12, -83, 91, 48, 89, -78, 145, 70}
}
, {{-44, 67, -144, -113, -118, -35, -41, -59, -76, -59, 45, -1, 33, 5, 3, -15, 4, -131, -45, -24, -19, -136, 22, 77, -149, 43, -82, -25, 17, 77, -7, -122}
, {-18, 58, -52, 6, -118, 74, 24, -47, -90, 32, -70, -40, 42, -27, -33, -65, 104, 63, -23, -79, 28, -115, 128, -7, -58, -143, -24, 48, -53, -173, -41, -70}
, {107, -3, 90, 86, -29, 136, 36, -83, -28, 30, -124, 61, -42, 20, 97, 24, -59, 90, -7, -35, 103, -4, -17, -152, -76, 22, -18, -39, 65, 83, -39, 2}
}
, {{-91, 47, 77, -59, -207, 20, -89, -29, -161, -104, -141, -178, -43, -60, -97, -153, 27, 36, -84, -47, 42, -67, 64, 36, -117, -31, -67, -31, -87, 85, -103, 184}
, {-9, 84, -24, -109, -78, 71, -53, -49, -41, 46, -102, 38, -71, 158, -29, -62, -94, -69, -57, 13, -23, -106, 35, 5, 69, -25, -59, -59, 97, -30, 71, -1}
, {-58, -105, 105, -156, -4, 9, -18, 75, -167, 30, -159, 71, -53, -105, -1, 96, 115, 1, -48, -206, 49, -45, 56, 59, -209, -46, 40, 27, -61, 99, -94, 97}
}
, {{-98, 8, -36, 20, -50, -24, 21, 37, -69, -28, 62, -23, 111, -129, -103, -137, 80, -80, 127, -49, -84, -161, 140, 30, -16, -7, -41, 40, -32, 87, 34, -29}
, {-1, -3, 11, 24, -2, 36, 109, -90, -6, 26, 120, 8, -19, 6, -69, 2, 43, -64, -7, 30, 59, -22, -67, 88, -94, -143, 63, -25, -79, 30, 5, -45}
, {-168, -1, -209, -132, 33, 26, 10, 56, 11, -115, 25, 8, 93, 171, -64, 39, -226, 31, -105, 4, -100, 158, 57, 81, 21, -45, 18, 59, 155, -29, 99, 62}
}
, {{-38, -76, 9, -111, -72, -55, -36, 58, -145, 34, -68, -61, -171, 116, -77, -112, -46, -3, 59, -34, -43, -84, 68, 74, -87, 20, -66, -60, -53, 176, -51, 0}
, {41, 71, -1, -72, -110, -40, -11, 189, 121, -12, -26, -27, -60, 10, 85, -3, -17, 12, 22, 156, 90, 56, -31, -98, 13, -11, -33, 50, 22, -22, 10, 18}
, {-68, 38, 48, -153, -103, -26, -38, 79, -31, 40, 31, 30, -2, -191, -76, -111, 13, -89, -69, -121, -42, 18, 24, 84, -21, -17, -37, 34, -3, 2, 34, 50}
}
, {{-96, -133, -65, 102, -55, -33, -63, -66, 39, 18, 48, -19, -47, -71, 60, -39, -43, -80, -48, 15, 54, -29, 21, -81, 5, 58, 2, -42, 42, -84, -37, 0}
, {-158, -1, -64, -77, 34, -35, 70, -11, 77, -163, -4, 82, 4, 31, 34, 16, -150, 10, 40, 35, -14, 64, 11, -15, 112, -1, 69, -45, 23, -86, 26, -12}
, {7, -34, -65, -23, 18, 59, -136, 28, 66, 2, -127, -4, 6, -3, -21, 34, -215, 62, 32, 61, -19, 79, 5, -86, 9, 51, -2, 75, 74, -174, 157, 16}
}
, {{-95, -53, 23, 89, -52, -66, -100, -139, -19, 99, -60, 0, 134, 66, 141, -136, -14, -126, 135, -3, 95, 22, -78, -10, -10, 126, 29, -206, -94, 144, -32, 9}
, {-4, -104, -26, 34, -74, 14, -19, 65, 19, 8, -35, -23, -65, 26, -22, -53, -112, 147, -19, 47, -38, -73, 56, -36, 34, 67, -50, -81, 134, -7, 19, 53}
, {98, -63, 52, -137, -48, 129, -45, 161, 69, 13, -49, 79, 29, -45, -87, 42, -66, -58, -25, 14, -6, -24, 102, 57, 29, -17, 57, 80, 93, -148, -4, 82}
}
, {{31, -42, -32, -244, 70, 85, 5, 109, -10, -78, 14, 105, -128, -164, -174, -17, -23, 72, 52, -53, -27, -51, 125, 6, 38, -264, 85, 95, 135, -44, 64, 90}
, {-47, -52, 44, -133, 57, 61, 14, 39, -77, 59, -27, 22, -49, -112, -110, 18, -26, -41, -23, -66, -101, -80, 88, 48, 6, -45, -28, 11, -59, -3, -26, 7}
, {-166, 70, 124, -101, -159, 25, -50, 12, -7, 97, -70, -168, 65, -22, -165, -54, 36, -227, -80, 69, -153, -88, -46, 53, 176, 36, -361, -222, -124, 128, -94, -90}
}
, {{-35, 27, 102, 31, -205, -5, -47, -16, -3, -128, 69, -65, 30, -60, 26, -12, 100, -41, 117, -42, 4, -62, 184, -6, 30, -1, 51, -100, -29, 180, -11, -18}
, {-56, 60, -150, 5, -60, -68, -19, 6, 29, -8, 35, -19, -104, -55, 58, 9, -76, -105, 6, -30, -4, -21, -18, -40, -4, 10, 22, 10, 72, -39, 28, 51}
, {-126, -55, -155, 32, 54, 12, 66, -87, 65, 6, 11, 52, -117, -66, 4, -76, -58, -63, 59, 69, -123, 45, 9, 33, 63, -45, -57, 52, -56, 25, 114, 6}
}
, {{55, -54, -3, -72, 73, 65, 30, 118, 46, -66, 69, 27, -4, 11, -25, 71, -18, 90, 49, 158, -67, -7, 20, -75, 149, 10, 69, 79, 155, -50, 21, 65}
, {-52, -35, 5, -75, -62, -11, 0, -26, 41, 17, -28, -145, 30, 3, 62, -54, 23, -183, -24, 29, -30, -61, -77, -53, 58, -19, -86, -8, 24, -81, 10, 54}
, {23, -4, 12, 0, 45, -49, 29, 84, -145, -11, 17, 95, 81, 78, 16, 35, 34, -6, 36, -30, -53, -12, -69, -109, -81, -40, 73, 47, -36, -73, -48, 36}
}
, {{-10, 75, -204, -155, -25, 92, 40, -77, -1, -11, -41, 120, -136, -8, -136, -56, 4, -27, -26, -145, -86, -104, -75, 45, -81, -29, -58, 107, -61, 61, 123, 80}
, {-28, 82, 52, 99, -63, -211, -87, 2, -65, 24, -119, 37, -140, 40, -92, 194, -142, -145, 27, 1, 24, 17, -26, -4, -75, 92, -36, -9, 41, -170, 88, -12}
, {-82, -18, -255, 37, -53, 133, -156, -25, 249, -60, -56, -25, -106, 275, -119, 60, -130, -132, -179, 114, 10, 114, -66, -153, 37, 149, -41, 44, -37, -175, 17, 95}
}
, {{-32, 3, 64, 54, 11, 2, -21, -139, 114, -38, -3, 66, -26, 85, 21, 24, -129, 21, -17, -37, 54, -13, -124, -176, 80, 72, -2, -67, -65, 31, -4, -7}
, {-18, 78, 38, 18, -13, -160, -15, 33, 45, -130, -59, 98, 26, -72, 91, -72, -84, -8, 91, 3, -12, 29, -49, -99, -34, 24, 34, -47, 74, -7, 42, -75}
, {-2, -102, -62, 34, -5, 135, -77, 13, 81, 3, -85, 95, -85, 33, -121, 75, -57, -99, -9, 17, -24, 23, -33, -113, 56, 92, 9, -40, 13, 34, -7, 104}
}
, {{-61, 3, -16, -5, 60, 20, -59, 46, -17, -1, -37, 183, -124, 20, 30, -61, -12, 45, 125, -128, 120, -44, 108, -61, -53, -81, 110, -103, 121, 57, -21, 40}
, {27, -61, 4, -56, -48, -72, 103, 107, -2, 20, -2, 30, -2, -136, -41, -39, -27, -90, -5, 11, -93, 42, -10, -2, -42, -2, 28, 71, -3, -83, -27, -76}
, {-90, 111, 40, -98, -126, 105, -10, -94, 6, 53, 60, -90, -8, 48, -25, -47, -5, -85, -102, -39, -49, 95, 13, 24, 89, 70, -153, 15, -89, -11, -89, -10}
}
, {{22, 74, -85, 43, -33, -90, -70, -153, 61, 26, -11, -126, 69, -115, 14, -131, -57, -152, -52, -88, -140, 39, -101, 56, -46, 114, 54, -55, 48, -86, 50, 88}
, {42, 80, -15, -49, 18, 54, 13, -31, 15, 27, -21, -21, -2, -103, 71, 59, 47, 11, -12, -32, -50, 83, -2, -42, -36, 5, -19, 54, 64, -128, 78, 20}
, {100, -106, 5, -82, 17, 124, -25, 152, 22, 63, 21, 100, 61, 54, 50, 119, -55, 64, 102, 86, 47, -108, 59, -87, -87, -137, 78, 63, 98, -18, -24, -56}
}
, {{-15, -65, -74, 16, 58, 41, -89, -21, 52, 111, -171, 111, -73, 16, 116, 53, -75, -86, -34, -43, 127, -81, -64, -123, 108, -22, 47, -27, -38, -97, -28, -39}
, {33, 66, -77, 103, 11, 53, -37, 79, 47, 52, -92, 60, -16, 78, 13, 32, -114, -101, 68, 1, 23, -94, -81, -11, -33, -74, -14, -6, -39, -98, 24, 5}
, {43, 91, -67, -83, 18, -29, -89, 132, 39, 186, -99, 21, 105, 24, -24, 4, -117, -22, -99, -10, 16, 11, 36, -107, -36, -33, 19, 44, 123, -86, -81, -16}
}
, {{-158, 4, -69, -116, -173, -72, 37, -67, 3, -96, 22, -89, -84, -81, -60, -196, -20, -18, -63, -53, -80, -127, 40, -31, -43, 2, -70, 73, 32, 47, 59, -52}
, {-84, 85, -13, -92, -37, -30, -57, -26, 20, -1, 71, -38, -26, -22, -57, -63, -59, -75, -6, -17, -126, -20, 98, -46, -68, 9, -61, -46, 115, -57, 56, 88}
, {-46, 33, 1, -140, -121, -11, 102, -4, -45, -8, 50, -98, -61, 3, -22, -102, -146, -26, -2, 64, -55, 90, 70, 78, 56, -54, -96, -30, 79, 103, 74, 36}
}
, {{105, 65, 69, -119, -228, 56, -89, -77, -2, 20, -71, -15, 30, -13, 73, -85, 57, 52, -82, -120, -76, -138, 16, 112, -164, -197, -108, -160, -44, -128, -23, -87}
, {59, 56, -19, -13, 1, 87, -70, 52, -120, 48, -122, -16, 151, -4, 65, 52, -31, -71, -74, 20, 20, 29, -37, -152, -122, -28, -128, -43, 32, -33, 16, 82}
, {-15, -226, -48, -154, 6, -22, -91, 26, -88, 109, -128, 19, 23, 22, -24, 57, -27, 54, -89, 65, 77, -31, -47, -64, -140, -2, -133, -45, -10, 15, -40, -106}
}
, {{41, -32, -81, -110, 6, 44, -58, 107, 12, -104, 12, 63, 7, 6, -88, 33, -66, -4, -72, 59, -46, -106, 186, -70, 70, -96, 31, 53, 57, -183, 72, 138}
, {-11, 96, -55, 57, -5, 61, 13, 97, 112, 11, -22, 30, -38, 7, -17, 13, -108, 8, -50, 47, -62, -12, -21, -14, 48, -3, 22, 24, -32, -129, 1, 170}
, {-399, 132, 17, 98, -21, -140, -53, -136, 75, -123, 72, -150, -259, 11, -84, 18, 158, -132, 25, 51, -147, -44, -101, 66, -5, 134, -95, 7, -53, 70, -104, -87}
}
, {{-76, 67, -23, 85, 136, -71, -104, -26, 129, 5, -4, -89, -42, 65, 9, 30, 27, -75, 0, 75, -62, 74, -95, -70, 99, 104, 4, 68, 7, -62, -19, 67}
, {-102, -14, -30, 73, -15, -56, -28, -103, -3, 84, 26, -95, 131, -14, -14, -62, 11, 14, -5, -58, -100, 14, -34, 89, 53, 20, -4, 13, -89, 110, 72, -27}
, {46, -9, -33, -17, -47, 182, 11, 147, 22, -13, -11, 14, 37, -145, -29, 28, 27, -4, 114, -98, 32, 18, -59, -30, -8, -46, 87, 29, 132, -20, 77, 57}
}
, {{-97, 137, 53, 53, -162, 48, -199, -84, -20, 163, -184, -57, -3, -29, 86, -181, -47, -161, -66, 11, -2, -71, -139, -3, 4, 56, 64, -140, -200, 105, -90, -10}
, {-23, -141, -72, -27, 72, 65, -19, -38, -17, 102, 33, -85, 4, -36, 0, 42, -13, -63, 79, -9, 85, -100, -23, -94, 35, -98, 59, -55, 30, 19, -6, 56}
, {-75, -92, -195, -10, 79, 19, 36, 158, 84, 5, 12, 81, -32, -37, -72, 27, 31, 169, -26, 1, 49, 24, 111, -64, 36, 16, 135, 99, 138, -208, -55, 222}
}
, {{-164, 138, 159, 13, -195, -87, -123, -200, 2, -102, -78, -79, 129, -35, 36, -36, -48, -116, -33, -17, -4, 28, -156, 49, -196, 47, -20, -130, -80, 92, -76, -77}
, {82, -17, 86, -169, 41, 12, -76, 6, -167, 110, -70, 55, -28, -54, -55, 78, 38, 12, 90, -76, 87, -73, 38, -5, -3, -125, 49, 53, -66, 115, -21, 53}
, {74, -49, -28, 3, 36, -90, -35, 178, -67, 35, -29, 132, 23, -94, -77, 6, 84, 65, 85, -157, -18, -70, 27, -77, -87, -129, 203, 3, 85, -50, -51, -43}
}
, {{-33, -19, -90, -36, 0, 30, -22, -3, 68, -26, 72, 2, 16, 82, -61, -2, -130, -4, -57, 93, 18, 26, -31, -19, 115, 87, -86, 64, 97, 30, 67, 14}
, {-54, -84, 7, 28, -72, 62, 12, -41, 81, -72, -70, -71, 77, 11, 17, -21, -23, 24, -49, 82, -74, 12, -59, -99, 108, 35, -37, -39, -10, -38, -5, 35}
, {-39, -39, 182, -45, -132, -71, -168, 177, -104, 41, -66, 13, -68, -11, -161, 30, -123, -110, 11, -39, -19, -20, -2, 87, -232, 99, -60, -140, 37, 210, -117, -73}
}
, {{-11, 110, 96, -19, 15, -83, -94, -37, 40, -51, 11, 6, -42, -12, -67, 151, 52, -63, 53, -89, 4, -76, 63, -25, -112, -96, -65, 49, -7, -16, -79, -41}
, {-84, 86, 141, -129, -172, 6, -168, -47, 79, -137, -10, 22, -105, -14, 20, -78, -71, 7, -19, -16, -109, 13, 1, 143, -13, -47, 15, 57, 28, 56, 16, -3}
, {21, 22, -36, 58, 33, 175, 34, 44, 41, -206, 79, 115, -42, 7, 50, -100, 141, 13, 86, -85, -70, -154, 133, 0, 53, 7, 171, -32, 145, -10, 257, 38}
}
, {{-26, -75, 138, -151, -17, 131, -63, 36, -67, 102, -33, -35, -35, -78, -123, 33, 168, 23, -94, -124, -85, -240, 140, -125, -150, -160, -29, 23, 30, 41, -55, -66}
, {53, -38, 62, -32, 53, -20, 34, -93, -127, 61, -21, 6, 45, 20, -8, -14, 118, -107, 13, -155, 2, -53, 109, 4, -32, -6, -9, -49, -51, 14, -138, -114}
, {29, -39, -76, 119, -45, -79, 42, -114, 63, 33, 85, -148, 84, 37, -14, 24, -38, -210, 32, -18, -20, 10, -18, -34, 43, 38, -215, -152, -180, 101, -76, -177}
}
, {{-107, 138, -67, 87, -117, -89, -171, -81, 91, -74, -27, -103, 97, 47, -50, -79, -153, -171, -13, 118, -34, 135, -217, -61, -3, 181, -112, -104, -59, -7, -54, 21}
, {7, -11, 15, -52, -58, -14, -119, 75, 33, -8, -44, -63, 72, 61, -126, 39, 11, -95, -70, -11, 4, 71, -36, -36, -92, -40, -23, 25, 35, 8, -78, 90}
, {136, -54, 27, -108, 47, 5, 59, 70, -30, -7, -15, 181, -37, -77, -155, 134, -1, -67, 46, -14, 6, -39, 122, -21, -105, -97, 119, 76, 119, -68, -49, 83}
}
, {{76, -117, 103, -118, 84, -71, -97, 67, -232, 107, -296, 140, 3, 15, 35, 150, 7, 1, 8, 4, 134, -35, 155, -127, -7, -145, -105, 77, -45, 93, -292, 155}
, {-112, -109, 36, -122, 40, -72, 38, 89, -277, 91, -150, 88, -57, -97, 38, 3, -3, 12, -34, -19, 8, -88, 25, 30, 100, 82, -100, -1, -54, 49, -45, -79}
, {-27, -25, 158, -88, -77, -21, 2, 91, -162, 101, -143, -28, -20, -163, -52, -22, 48, -158, -99, -90, -26, -117, -32, 52, -137, -14, -35, -10, -91, 114, -111, -43}
}
, {{-77, 95, 31, 2, -139, -45, 51, -40, 17, -165, -8, -19, 56, -63, 88, 23, 22, -32, 69, -33, 112, 136, -131, 25, -76, 83, -26, 102, 62, -85, 127, 73}
, {-90, -91, 9, 3, -123, -21, 52, 52, -26, -18, 66, 2, -14, 42, 61, 7, 11, 63, 44, -2, -60, 14, 134, -12, -76, 1, 80, 18, 33, 16, -9, 11}
, {-106, -126, -9, -99, -139, -56, 138, -7, -24, -108, 133, -23, -27, -137, 7, -28, 43, -18, 143, -4, -51, 22, 119, 94, -45, 57, -155, 98, 25, 65, 25, -113}
}
, {{51, -7, -24, 37, 94, -12, 35, 125, 3, 118, 54, 9, 94, -67, 32, 104, -26, -22, -36, -1, -69, 85, 91, -96, 13, -28, -56, 52, 115, -67, -53, -114}
, {35, 14, 96, -47, -47, 26, 46, 82, 31, -18, -41, 13, 28, -39, -17, -48, -81, -17, 45, 15, -40, 81, -65, 10, -28, 25, 9, 45, -29, 103, -17, 16}
, {-151, 77, 56, 113, 66, -36, 5, -101, 40, -85, -13, -90, 42, 61, 55, 21, -89, -115, 119, 49, 167, 29, -78, 111, 103, 110, -35, -128, -11, 33, -28, -78}
}
, {{72, -81, -4, 82, 117, 101, 59, -48, 61, 57, -7, 53, -45, 8, -27, -4, -28, 60, 80, -87, 28, -114, 56, 39, -25, 5, 48, -37, 141, -67, 1, 47}
, {-27, 63, 28, 63, 16, -92, 31, 101, -19, -47, 53, 32, -2, -38, -4, -16, 35, 78, -3, -11, -24, -7, -1, -44, 31, -43, 57, 36, 39, 84, 10, -52}
, {86, 6, 9, 105, -15, -14, 47, 43, -16, -44, 112, 21, 31, -52, -61, 31, 16, 51, 10, 8, -78, 23, -40, -48, -24, -26, 82, 153, -40, 65, -105, -73}
}
, {{40, -54, 41, 26, 56, -15, -62, -31, -86, 172, -106, 14, -86, -2, -17, -73, 57, -50, 2, -112, -5, -160, -26, 19, -197, -27, -9, -59, -24, 54, -193, -88}
, {28, -35, 26, 9, 45, -31, -90, -34, -69, 88, -123, 31, 53, 41, 13, 72, -29, -85, 84, -27, 85, -21, 73, -7, -94, 29, -2, -157, 26, 33, -146, -83}
, {-128, 32, -69, -139, 5, 7, -134, -101, -57, 29, -35, -93, -11, 49, 52, 54, -101, -110, 50, -65, -46, 15, 100, 13, 137, -21, -282, -85, -51, 5, 13, -132}
}
, {{-28, -177, 25, -39, -3, 69, -99, -74, 108, -85, 0, 147, -95, -40, -5, 59, -33, 81, 22, -227, 200, -55, -35, -26, 24, 28, 24, 77, 140, -222, 110, 65}
, {-122, 49, -53, -23, -44, -63, -68, 48, -8, -160, 6, 90, -16, -16, 50, -60, -110, -2, 30, 109, -3, -21, 58, -8, -26, -36, -34, -64, -80, 19, 0, -152}
, {-93, 151, -98, 5, -31, 55, -92, -14, 152, -56, 99, -37, -212, 110, -78, -9, -131, -56, -73, 150, 41, -23, -44, 54, 141, 61, 60, -15, -52, 64, -2, 91}
}
, {{-31, -163, 175, -49, -66, 59, 129, -53, -40, 113, 5, 0, 123, -61, 144, -44, 139, 24, 63, 49, 176, -5, 107, -116, -77, -8, 4, -42, -94, 131, -47, -3}
, {-23, -27, 115, -47, -62, -75, 61, 29, -43, -26, 95, 33, -9, 0, 141, 60, 44, 25, 41, 146, 35, 71, 63, 20, -58, -49, -16, 25, -62, 27, -61, -25}
, {-38, -75, 60, -50, 3, -61, 6, 112, -70, 17, -52, 86, -62, 100, 26, -64, -112, 50, -71, 62, -40, -55, 56, -41, 3, -12, 51, 68, 82, 9, 37, 26}
}
, {{33, -169, -86, 162, 201, -118, 17, 63, 120, 51, -20, 78, -10, -65, 0, 100, -10, 3, 120, 40, 38, 144, 74, -153, 127, -73, 36, 30, 44, -171, -75, 59}
, {-166, -32, -9, -42, -119, 74, -14, -101, 59, -67, -35, -101, -61, -59, -122, -192, -159, -11, 4, 26, -138, -8, -84, 50, 69, -15, -180, -68, 44, -107, -51, -74}
, {-67, 25, -9, -62, -181, 31, -92, -29, -44, -57, -57, -52, -46, 20, -42, -118, -36, -3, -50, 77, 9, -18, -115, -23, -36, 94, -65, -118, 43, 1, 10, -22}
}
, {{-41, -85, -28, 36, -96, -24, 18, -169, 21, 2, 19, -119, 115, -142, 50, 4, 16, -168, -25, -33, 97, 144, -107, -73, -46, 112, -94, -103, -115, -63, 17, 24}
, {-8, 0, 60, 30, -29, -35, -7, 11, 7, 31, 69, 123, 56, -38, -44, -37, -2, 13, -48, -15, 7, -38, -112, 49, -114, -33, -19, -20, -41, 25, -96, 49}
, {284, -62, -88, -29, -1, -25, 1, 27, 80, 48, -135, 90, 105, 29, -94, 34, -101, 23, -55, 22, -44, -1, 59, -91, -21, -41, 81, 97, 145, -72, 80, 82}
}
, {{55, 23, -4, 37, 10, -3, -32, 63, 52, -15, -5, 32, 60, 41, 22, -46, -63, -47, -30, 76, -106, 56, 98, 105, -46, -9, 27, -1, -8, 26, 68, 58}
, {-51, 31, -82, -93, -30, -22, -39, 21, 63, -137, 75, -46, -184, -102, 0, -2, 39, -12, -23, -39, -118, -16, 73, 66, 62, -58, -92, -14, -19, 79, -33, -12}
, {9, 104, 1, -64, -134, -132, 30, -194, 71, -114, 43, -45, -113, -161, -165, -175, 73, -1, -23, -79, -88, 19, 8, 66, -34, -18, -4, -3, -33, 17, -2, -120}
}
, {{97, 53, -72, -102, -7, 76, -124, 65, 140, -53, 9, 60, 147, 124, -57, -24, -10, -5, -144, 198, -55, -135, -25, -28, -62, 110, -81, -37, -94, -38, 3, 62}
, {93, 15, 133, -26, -87, 109, -165, -55, -103, -64, -129, 41, -51, -136, -49, 46, -107, 130, 50, -154, 83, -118, 7, 13, -19, -42, -47, -76, 105, 11, 72, -27}
, {-46, -29, 19, -70, -69, 51, -35, -100, 32, -202, 6, 89, -6, 137, -14, 59, -195, -58, -16, -90, 87, 126, 92, 16, 47, 65, -84, -110, 74, 26, 78, 37}
}
, {{9, 95, -56, -64, -60, -50, -108, -48, 77, 10, -45, 4, 109, 177, -62, -82, -29, -22, -96, 23, -94, 0, -184, -2, -14, 66, -62, 3, -113, -136, -2, 33}
, {62, 65, -20, 9, 45, -77, 26, -38, 75, -2, 55, 60, 22, -9, -21, 79, -59, -49, -68, 112, 27, 22, 2, -122, 51, -82, -25, 44, 12, -128, 111, 10}
, {125, -83, -31, 77, -18, 43, -65, 11, -28, 47, -58, -1, 129, 107, 80, 152, -141, 13, -14, -25, 27, 24, -55, -11, -1, 46, -96, -60, -43, 26, -16, -15}
}
, {{-222, 95, -123, 10, -15, 159, -79, -122, 6, -75, -46, -179, -84, 77, -21, -22, 34, -48, 57, -24, 61, -1, -60, -22, -44, 213, -8, -129, 18, -21, 63, 14}
, {-41, -51, -21, 49, 81, -43, 13, 83, -68, -2, -88, 69, 48, -8, -65, -110, 24, 39, 51, -84, 11, -66, 14, -10, -74, 16, 3, -107, 73, -10, 36, 38}
, {147, -19, 72, 3, -2, 54, -65, 77, 6, 31, -73, 13, 19, -109, -80, 49, 104, -30, -13, -17, -40, 3, 9, -11, -54, -49, 23, 58, -1, -73, -117, 62}
}
, {{-134, -18, -80, -11, 4, 87, -61, -7, -66, 57, -69, -10, 5, -3, 2, -56, 14, -21, 2, -12, 109, -81, 8, 27, -120, 39, 11, -14, -27, -42, 64, 55}
, {27, -39, -11, 73, -1, -25, -20, 58, -12, 32, 57, 24, -148, 86, 0, -18, 63, 43, 33, 14, 70, -86, 31, -3, 40, 90, -6, 56, 75, -127, -88, 45}
, {-215, 13, 94, 60, -127, -21, -124, 2, -86, 11, -17, 13, 23, -101, 43, 35, 254, 55, -11, -48, 81, -108, 92, -73, -174, -104, -2, 2, -27, 156, -155, -39}
}
, {{47, -70, -110, -30, 43, -73, 0, 46, -140, 31, -148, 114, -63, 117, -45, 3, 19, -143, -38, 57, -7, -2, 120, -37, -21, -71, 52, 27, -14, -74, -120, 66}
, {51, -61, -68, -2, 70, -6, -22, -70, -12, -32, -37, -94, -36, 153, 108, 126, -16, -72, 78, 86, 19, 32, 4, 48, 81, 94, 66, -12, -19, -157, 51, 65}
, {-65, -106, -118, 89, -11, -1, 54, -16, 85, 144, -136, 41, -41, 89, 16, -19, 14, 3, 40, -13, 41, -51, -30, -79, -5, 101, 132, 49, 83, -1, 97, 94}
}
, {{-81, 35, 35, -63, -35, -6, -80, -52, -56, 40, -31, -22, -30, -134, 98, 30, 104, -33, -73, 34, 52, -61, -126, 30, 1, 17, -107, -82, -134, 115, -3, 21}
, {-22, 5, -44, -143, -53, -18, -60, -114, -49, 36, 89, 59, 129, -55, -80, -3, 101, 50, 37, -56, 92, -84, 52, 65, -109, -12, -159, -22, 13, 16, 16, -214}
, {259, -132, 86, -57, -3, 119, 189, -9, -181, 105, -130, 29, 144, 34, 56, 58, 45, 69, -188, -116, 67, -4, -34, -218, -187, -134, -35, 89, -90, -20, -22, 66}
}
, {{-21, 14, 4, -71, 21, -11, -101, -111, -26, 90, 18, 22, -28, -74, -11, -2, 78, 57, 103, -69, 4, -154, 45, 5, 42, -107, 106, -96, 1, 89, 73, -68}
, {-57, -89, 88, -48, 56, 9, -52, 23, -71, 79, -47, -32, 3, -35, 0, -26, -69, -53, -57, -91, 63, -55, 61, 36, -74, 0, -78, 82, 65, 44, 67, -13}
, {-1, 64, 57, -39, -68, 47, -55, -11, -109, -10, 30, 16, -66, -44, 79, 5, 209, 78, 92, 21, 135, 47, 31, -5, -121, 15, 109, -34, -46, -144, -144, 5}
}
, {{44, 18, 17, 7, 108, 50, -45, -39, 59, -122, -77, 92, -97, 8, -81, 7, -19, 44, -22, 98, 39, -25, -53, -33, 23, 56, -68, -15, 77, -72, -53, 51}
, {33, -57, -194, 105, -8, 26, -143, 8, 58, -92, -54, 48, 16, 112, -142, 192, -245, -93, -111, 104, 2, 83, 69, -73, 51, 44, -44, -17, -35, -206, -71, 30}
, {-66, 91, -256, 53, -22, -19, -90, 93, 117, -23, -96, 56, -113, 161, -14, -139, -127, -108, -8, 91, 32, -13, -160, -164, 6, 71, 10, -76, 6, -196, -44, 66}
}
, {{-213, 81, 6, 38, -41, -117, -139, -132, 24, -54, 10, 29, 18, 39, -53, -98, 37, -113, 92, -42, -94, -93, 39, 26, -39, 73, -119, -140, -49, 207, 28, -74}
, {9, 105, -103, 70, -18, -13, -102, -25, -7, -126, -83, -9, 0, 24, -57, -138, -59, -68, -56, 37, -47, -92, -105, 52, 56, 49, 53, -62, 52, -26, 36, 93}
, {129, -54, -104, 17, 69, -13, -60, 56, 18, -59, -46, 33, 116, 128, 4, 58, -86, 49, -128, 30, -11, -13, 26, -139, -18, -62, 97, 129, 87, -224, -91, 137}
}
, {{96, -141, 68, -80, 133, 95, -15, 53, 38, -1, -51, 246, -10, 39, 43, 139, -89, 98, 75, 37, 47, -5, 168, -258, -9, -125, -47, -6, 154, -119, -46, -16}
, {-36, 4, -46, -10, 17, -19, -23, -5, 59, -18, 69, -75, 18, 55, 91, 60, 7, -57, -8, 20, 15, -34, 84, -48, 44, 14, 19, 21, -15, -41, -2, 22}
, {-217, -42, 6, -43, -138, -137, -65, -186, 0, 37, 37, -146, -98, 31, 90, -76, 27, -146, 65, -35, 19, -91, -148, 145, 88, 119, -152, -161, -142, 91, -70, 25}
}
, {{-150, 108, 50, -29, -97, -122, -62, -77, -18, 17, -16, -44, -109, 23, 69, -37, -2, -113, -17, 8, 35, -80, -76, -33, -93, 16, -138, -20, -106, 66, -68, -37}
, {-93, -25, 12, -56, -115, -129, -15, 88, -44, 46, 48, 31, -152, -34, 1, 12, 20, -87, -25, -6, 5, -78, 42, -50, -147, 5, -83, 106, -49, 66, -35, -8}
, {216, 32, -66, -89, -80, -35, 68, 57, -79, -38, 37, 23, 129, -56, -10, -16, 183, 64, -63, -136, -127, -73, 105, -44, -129, -92, 102, 132, 58, -47, 142, -116}
}
, {{-26, 54, 7, -45, -207, -164, 42, 107, -67, 15, 72, -188, -21, 26, -52, -46, 61, -32, -176, 72, -296, -102, 33, 71, -71, 93, -61, 224, -90, -34, -61, -1}
, {82, 87, 17, 61, -29, -118, 46, 18, -5, -21, 15, -83, 83, 9, -5, 60, 45, 118, -87, 7, -187, 40, 23, 116, -9, -112, 3, 169, -89, 34, -40, -7}
, {2, 68, 4, 107, 24, -98, 67, 3, -5, 39, 1, -92, 9, 25, 27, 9, -31, 2, -92, 95, -56, 50, -70, -24, 26, -38, -42, 11, -90, 26, -62, -1}
}
, {{-29, -173, -24, 5, 133, 125, 20, -26, -35, 45, -21, 36, 40, 40, 162, 43, -59, -63, 59, 27, 105, -38, 29, 53, 65, 121, 6, -107, 104, 3, 149, 49}
, {-68, 18, -14, 23, 29, -19, -31, 36, 32, -12, -30, 64, -108, 26, 44, -52, 23, -90, 52, 66, -22, -11, -11, 93, -26, -16, -23, -29, 19, -51, -20, 18}
, {-116, 104, 71, -43, -84, -184, 26, 73, -31, 73, 36, 65, 9, -189, -116, -172, 109, -31, 71, 65, -153, -52, -152, 13, -41, -69, -12, 110, -53, 4, -179, -40}
}
, {{20, -22, -86, -77, 102, 144, -33, 32, 39, -2, 6, 75, -10, 125, 26, 123, 5, 58, -14, -10, 29, -77, 76, -122, 7, -155, 59, 11, 61, -201, -52, 87}
, {-11, -59, -4, -56, 39, 60, -128, -65, -47, -22, 23, -60, 21, -14, 39, 15, 18, -66, -50, -128, -9, -13, -24, -41, -24, -43, -38, 34, -49, -46, 16, 80}
, {-15, -78, 195, 40, -1, 38, -103, -68, -82, 117, -122, -33, 115, 66, -30, 46, 59, 4, -71, -57, 52, 48, -118, -20, -37, 30, -53, -104, -81, 104, -55, 19}
}
}
;

#undef INPUT_CHANNELS
#undef CONV_FILTERS
#undef CONV_KERNEL_SIZE