/**
  ******************************************************************************
  * @file    weights/conv1d.cc
  * @author  Pierre-Emmanuel Novac <penovac@unice.fr>, LEAT, CNRS, Université Côte d'Azur, France
  * @version 1.0.0
  * @date    24 march 2020
  * @brief   Template generating plain C code for the implementation of Convolutional Neural Networks on MCU
  */

#include <stdint.h>

#define INPUT_CHANNELS    64
#define CONV_FILTERS      64
#define CONV_KERNEL_SIZE  3


const int16_t  conv1d_3_bias[CONV_FILTERS] = {81, -110, 58, -7, 23, 50, 37, 49, 142, -10, 38, 51, 37, 33, 28, 55, -35, 41, -34, 54, 126, 56, 39, 142, 157, 42, 10, 86, 138, 74, 64, 40, 85, 8, 91, 83, 70, 71, 40, 50, 60, -62, 70, 81, 52, 41, 26, 84, 19, 61, 88, -15, 27, 50, 18, 72, 79, 31, 18, 53, 56, 34, -44, 10}
;

const int16_t  conv1d_3_kernel[CONV_FILTERS][CONV_KERNEL_SIZE][INPUT_CHANNELS] = {{{34, 83, 176, -37, 19, -39, -96, -23, 196, 32, 21, 97, -3, 24, -47, -2, -37, -114, -18, -24, -3, 22, 53, -14, 45, 42, 95, 8, 2, 49, -54, -27, -88, 5, 12, -45, 1, -35, 120, 154, 18, -8, 54, 39, 100, -39, -26, 14, 37, -56, 128, 113, 93, 14, 9, -79, -124, 88, 15, 24, -93, 54, 2, 92}
, {-70, -7, 17, -77, 14, -17, 55, 12, 62, -28, 55, 54, 59, 49, 50, -6, 45, -53, -50, -56, -53, -38, -24, 31, -82, 106, 56, -46, -83, -33, -86, -55, -10, -37, -71, 47, 71, 22, 54, -6, -12, -18, -56, -16, -28, -106, 12, -41, -88, -91, 123, 38, -44, -40, -133, -103, 26, 22, -32, 39, -22, 14, -25, 1}
, {54, -109, 84, 67, 24, -125, -22, 32, 59, -5, -23, 2, 15, -43, -60, -73, -141, -83, 32, -75, -28, 18, 11, 17, -75, 166, 20, 11, -38, -2, -38, -108, -7, -78, -36, 69, 30, -9, -12, -37, -74, -35, -26, 12, -133, 34, 54, 18, -52, -75, 52, -3, 29, 16, -85, -70, 30, 143, -74, -25, -57, 19, 76, -71}
}
, {{-61, 0, -255, 148, 105, -119, 72, -136, -151, 23, -35, -135, -11, 116, -35, 102, -25, -96, -86, 108, 16, -80, 87, 65, 66, -82, -61, 0, -8, -53, -82, 171, 10, -110, -81, -230, -94, -95, 119, -66, 100, -15, -49, 24, 61, -2, 93, -277, -34, 62, -163, -74, -201, -37, 11, 40, 20, -90, 50, 197, 10, -74, -16, 5}
, {13, -85, -14, 38, 56, -42, -4, 107, 63, -109, -77, 95, 83, 4, 90, 24, -70, 104, -78, 50, 25, 20, 52, 10, -7, 98, 43, -117, -106, -84, -13, -20, 12, 38, -7, -17, 122, -54, -75, -78, 35, 29, 45, -41, -7, 65, 20, 77, 30, 89, 4, -34, 71, -45, -82, 100, 35, 109, -7, 68, 25, 56, -2, -80}
, {68, 109, 19, -34, 124, -85, 63, 35, -192, -9, 90, -10, 2, -46, 52, 0, 37, 135, -171, 8, -35, -26, -98, -7, -79, -30, 6, -5, 4, -26, 118, 183, 13, -45, -98, 16, 159, -259, 90, -79, 178, 40, -20, 61, -11, 65, -72, -53, -77, 41, 35, 110, -79, 69, -108, 168, -8, -22, -74, 26, 109, 27, 16, 20}
}
, {{34, 44, 2, -55, -32, 79, 22, -7, -48, 43, 91, 36, 38, 16, -114, 39, 42, -108, -23, -7, -38, 51, -120, 64, -20, 20, 58, -57, 51, -15, -25, 20, -35, -20, 47, 71, -32, 3, 65, 131, 115, 59, 35, -79, -57, 57, 111, -17, 45, 3, 62, 6, 13, 30, -56, 29, 26, -10, 48, -42, -61, 99, 15, -26}
, {-105, 17, 68, 0, 45, -24, 13, -1, 1, 64, -5, 23, 1, 40, 8, 8, 57, -66, -12, -22, 46, -46, 129, 33, 83, -6, 58, 37, 28, 21, -75, 50, 74, 35, -35, -58, 45, 48, 92, -26, 8, 52, 54, 18, 8, 77, 34, 14, -17, -71, 100, 47, -13, 103, -35, 59, -36, 31, 42, 108, -71, 30, 106, 78}
, {-84, 17, 11, -110, -6, 72, -73, 42, -19, -77, 69, -24, -28, -95, 21, 3, 75, 51, 60, -89, -8, -24, -32, -56, 26, -18, -2, -63, 42, 96, -61, 51, 54, 23, 13, 139, 51, -31, -61, 92, -43, -31, -17, 12, -179, -56, 43, -17, 64, -61, 20, 17, 75, 22, 11, -15, 50, 17, -2, -36, -62, 5, 56, -29}
}
, {{-90, -183, 125, 4, -69, -43, 15, 46, 82, 100, -62, 125, -19, -142, 146, -43, -45, -41, -121, -28, -48, -68, 151, -44, -4, 22, 52, -114, -111, 47, 44, -234, 118, 31, -17, -33, 37, 80, -119, 12, -218, -33, 6, -23, -1, 34, -168, 123, 13, 30, 4, -22, 15, -91, -82, -4, -59, 103, -58, 58, 13, -11, -68, -3}
, {39, -21, 63, -32, 33, 38, 30, 75, -59, -65, 30, 75, -48, -138, 83, 25, -16, 5, -45, 63, -131, 78, -63, 12, 26, 73, 5, 39, 4, 10, 60, 45, 58, 29, 42, 117, 99, 50, 3, -51, 61, 29, -38, 6, -49, -32, -14, -27, -9, 191, -18, -59, 1, -39, -60, 45, -6, -19, 75, 39, 176, 39, 37, 5}
, {43, -49, 55, 31, -49, 14, 28, 52, 56, 95, -15, 8, -100, -29, 2, 26, 8, -80, 54, -32, 77, -33, 20, 61, -3, -27, 21, -43, -26, -111, 68, -70, -65, 36, -2, 49, -70, 56, 50, 15, -36, 18, -76, -7, -57, -22, 63, 97, -95, -85, 40, 23, -28, -80, 49, -157, 28, 70, -47, -88, 36, 16, -56, -2}
}
, {{-86, -111, 24, 52, -12, -13, 41, 26, -18, -92, -62, 54, 7, 24, 42, 38, -12, 34, -15, 53, 45, 3, 35, -73, -28, 36, 55, -29, -32, -52, 19, -7, -15, -85, -111, -66, -5, 64, 8, -93, 113, 20, -25, 6, 91, 15, -65, -18, -79, 14, 71, -41, -71, -91, -44, -15, 43, 28, -26, 25, 50, -95, -80, 93}
, {77, -103, 21, -5, -60, 30, 8, -10, 41, 13, -49, 88, 15, 11, -32, -45, -60, 82, -55, 130, -40, 33, 39, -74, 49, 63, -1, -49, 39, -50, 108, -33, 83, -58, -36, -67, -16, -43, -70, 30, -93, -37, -33, -22, 37, -6, -69, -38, 8, 45, -38, 6, -58, -14, -7, -68, -70, -16, -34, -76, 34, 28, -72, -41}
, {50, -64, 40, 44, -34, -43, 29, 20, 17, -40, -66, 4, 81, 7, 7, 14, -82, -25, 3, 56, -27, -21, -23, -54, 39, 93, -7, 8, 38, 14, 49, -59, -7, -4, -7, -14, -75, -72, -15, 23, -87, -13, 56, 30, 14, 53, -14, 34, -56, 0, 29, -9, -2, -113, 3, -63, -32, 71, -57, 58, -99, -69, -21, 35}
}
, {{27, 54, -27, -51, -34, -24, 4, 34, -81, 80, 128, 21, 72, -113, -42, -55, -1, 41, 38, -27, -13, 27, 1, -80, -96, 44, -12, -4, 69, -26, 153, -55, -87, -27, 15, -39, -22, 17, -32, 32, 0, -24, -73, -11, -53, -9, -109, -46, 66, -23, 39, 116, 47, -37, -63, -180, 27, 22, -81, -114, -12, -82, -60, -16}
, {-19, -28, 34, 11, 3, -17, 2, -15, 70, 76, 13, 96, -64, 13, 61, -48, -59, 32, -66, -32, -60, -72, 70, -45, 22, 13, 38, 59, -53, -25, 122, -68, -3, -52, -39, -40, -29, -50, -24, -36, -133, -79, 20, -25, 8, 32, -27, 16, -16, 3, -4, -22, 29, -53, 1, -40, -63, 57, -91, -14, -7, -14, 26, -22}
, {109, -104, 32, 90, 48, 4, 0, 37, -30, -11, -15, 109, -66, -32, 24, -2, 1, 29, -150, 27, -85, -121, 26, 14, -7, -93, -60, 12, -114, 41, 92, -35, 107, 32, -61, -8, 34, 51, -33, -61, -10, 14, -5, 26, 107, 8, -1, 30, 50, 45, -10, -30, -12, 70, -118, 121, -5, -28, 81, 122, 74, 37, 41, -57}
}
, {{-90, 121, 54, -60, -50, 5, 46, 40, -29, 91, 76, 44, -7, -25, 91, 119, 38, 39, -1, -25, 22, -37, -57, 31, -176, 48, 11, -15, -61, 45, 102, 40, 47, -70, -51, 68, 12, -68, -1, -14, -14, -45, -107, -49, 38, 22, -50, -137, -7, -55, -15, -10, -17, 103, -114, -73, 40, 34, 33, -24, 2, -31, -52, 39}
, {-44, 30, 21, -41, -24, 58, -29, 38, -94, 22, -42, 4, 21, 14, 0, 105, 31, 37, 35, -35, -12, 58, -20, -11, -115, -31, 35, -39, -1, -7, 23, 121, 90, 58, -48, 42, 26, 81, 52, 43, -110, -29, -24, -113, 25, -10, -21, -35, 36, -63, 39, 27, -15, 67, -87, 55, 62, -90, 78, 25, 9, 16, 3, -55}
, {-102, 30, -80, -175, -134, -4, -18, 4, -25, -89, -131, -36, -25, 23, -63, 156, 11, -39, 133, -101, 56, 97, -104, -112, 47, -75, -2, -127, -10, 42, -111, 76, -13, -35, 65, 30, -132, 178, -133, 107, -86, 11, -196, -74, -93, -61, 71, -20, 43, -103, 16, -66, -7, -17, 4, -56, 55, -4, 29, -16, -4, -112, -94, -80}
}
, {{-50, -18, 39, 60, -67, -85, 82, -13, 171, 140, 113, 136, 93, -8, -16, 46, 97, 1, -42, 2, 107, -77, -114, -28, -49, 11, 30, -8, 82, 63, -42, 53, -35, -40, -86, -62, 114, 4, -32, 9, -2, 76, 59, 58, -76, 91, 36, 74, -38, -95, 20, 13, -27, 70, 25, 108, -35, 148, -39, -79, 29, 64, 33, -5}
, {-42, 33, 62, -37, 26, 109, -41, 18, 14, 122, 11, 89, 23, 31, 20, 92, 5, 6, -5, -27, -13, -50, 9, 99, -45, -31, 24, -113, -63, -22, -82, 2, 123, -9, -72, -12, 92, 33, 9, -21, 54, -4, -30, -10, -25, 80, 23, 31, -7, -78, 20, 1, -4, -21, -51, 51, 13, 11, 114, 131, -59, 70, 14, 38}
, {-122, 143, 44, -47, -111, 150, -61, 47, 72, 46, -23, 58, 46, -27, 7, 30, 4, -3, 68, -76, 94, 13, -17, 78, -3, -1, 60, -27, 25, 49, -123, 42, -43, 70, 72, 34, -12, 76, 1, 56, 25, -59, 16, -69, 8, 17, -22, 82, 37, -113, 12, 11, 51, -23, 133, -84, 11, 104, 11, -42, -94, -71, -36, -14}
}
, {{114, 43, 8, -30, -48, -61, -52, 25, -34, 75, 52, 50, -41, -21, 37, -73, -52, 1, 21, 79, -88, 26, 10, 105, -31, 48, 19, 13, 8, -6, 35, -28, -36, 15, -3, 49, 51, 35, -28, 96, 41, -140, -15, -88, 7, -153, -32, 39, -25, 39, 85, 17, -61, -96, -28, -7, 8, -28, 131, -1, 46, 156, 83, 18}
, {63, -9, 45, -75, 32, 15, 12, 34, 19, -30, 63, -73, 13, -54, -65, -56, -21, 9, 7, 2, -19, 45, 1, 42, 55, -24, -12, 24, -90, 68, 15, -52, -51, -44, 18, 36, -92, -36, -2, -3, 17, -22, -37, -15, -89, -34, -26, -41, 14, 122, -69, 5, 55, -46, -59, 40, -33, 25, 42, -201, 53, 7, 34, 30}
, {24, -77, 96, 86, 107, 25, 8, 76, 30, 30, 65, 6, -18, 117, 7, -138, 5, 13, -8, 87, -60, -153, 37, -54, -12, 90, -8, 32, -14, -16, 62, -125, 36, 36, -37, -47, -37, -46, 139, -40, 43, -109, 136, -2, 93, 3, -80, -20, -10, 171, -2, 129, -67, 47, -45, 137, -54, 50, 43, -33, 88, 192, 13, 92}
}
, {{40, 3, -17, -53, 33, 72, -47, 49, -128, -36, -11, -55, -61, 91, -17, -124, 16, -16, 46, 9, 24, -20, -23, 56, -145, 29, -2, 49, -99, -18, 72, 95, -82, -38, -44, -27, 69, -28, 149, 30, 103, 10, -85, 57, 72, -87, -30, -26, -54, 14, -30, 15, -85, -2, -42, 10, -22, -14, -2, -86, -44, -91, 6, -78}
, {134, -35, 6, 20, 26, 52, -61, 96, 105, -41, -11, -32, -40, -80, 126, -15, 35, -26, -51, -10, 65, -19, 26, -37, -11, -22, 9, -8, -58, -17, 42, 10, -70, 36, 4, -44, -36, 46, -24, 83, 22, 11, -29, -34, 81, 47, -41, 71, 10, 37, -17, -2, 20, -44, -74, 29, 30, 96, -17, -74, 50, -20, -71, -70}
, {1, -4, -94, -147, -47, 30, -38, 28, -85, -49, -39, -79, -1, 7, 135, -12, 34, 59, -66, 29, -34, 13, -66, -34, -24, 123, -85, -99, 48, -77, 58, 10, -7, -60, -130, 109, 68, 3, -104, 105, 54, -57, -27, 16, -130, -34, 9, -48, 53, -16, -63, -39, -104, 68, -91, 137, -17, -43, -55, -119, 20, -65, -93, -52}
}
, {{-43, -119, 37, 45, -38, -72, 10, -31, 45, 41, -45, 14, 25, 233, -51, 6, -5, 18, 71, -16, -5, -39, 138, -96, 35, -14, 29, -59, -81, -63, 29, -64, 192, -102, -103, -29, -10, -36, 53, -119, 25, 25, 7, 35, -33, -5, -17, 5, 23, 46, 15, -13, -45, 33, 28, -28, -49, 3, -46, 117, -110, -40, -75, 97}
, {35, -87, 51, -71, -27, -43, 23, 54, 87, -57, 56, -16, -31, -76, 19, -42, -14, -10, -98, 61, -23, -71, -19, -54, -18, 17, 0, 25, 1, -23, -130, -71, 11, 39, 23, 14, 52, -54, -81, 12, 53, -6, 113, -13, -5, 6, 8, -35, -40, -11, -103, 15, 64, -21, -18, 26, -52, 21, -37, 21, 26, 28, 69, -51}
, {54, 7, 29, 70, -102, -53, 19, 128, 116, -76, 89, -56, -4, -42, -16, 18, -117, -62, 5, 93, -31, -24, 77, 52, -113, 103, -29, 77, -149, -107, 46, -24, 88, 6, 42, 33, -1, -31, 2, -20, 95, -32, 3, -84, -18, 4, -106, 25, -145, 83, 10, -56, -9, 72, -93, -126, -16, 124, -67, -64, -65, 1, -16, -15}
}
, {{-14, -82, -61, -14, 11, -117, -51, -122, 23, -10, -49, 29, -29, 41, 70, 7, -51, 142, -39, -81, -52, -76, 100, -4, -1, -65, 4, -80, 12, -10, 57, -101, 127, 39, -85, -75, 22, 2, 8, -29, -4, 2, -98, -55, 26, -70, -103, 52, -55, 5, -2, -38, -126, -33, 36, -40, -5, 10, -82, -51, -35, -127, -168, -14}
, {25, -45, -11, -23, 59, 29, 12, -78, 25, -31, -19, 53, 15, -20, 20, 91, -3, 38, 23, 52, 70, 12, 15, 23, -49, 121, -43, -80, -12, -21, 72, 14, -35, 6, -32, 6, 64, 0, 99, -19, 65, -22, 1, -9, 30, -3, 65, -70, -9, 19, -36, -17, -65, 86, -14, 10, -70, -13, -9, -4, -45, 39, -131, 10}
, {21, -11, -76, -64, 12, 85, -42, -29, 52, -3, -16, 38, -23, -7, -30, 40, -118, 47, -30, 4, 26, 7, -59, 6, 42, 66, -69, -106, 9, 3, 37, -20, 81, 14, 60, 13, 40, -18, -71, 7, 150, -50, -91, -107, 36, 35, -32, -48, 27, 13, 10, -18, -30, 43, -22, 63, 9, 17, 4, -53, 29, 25, -139, 34}
}
, {{-13, -78, 53, 142, 32, -60, 34, -46, 63, 55, -65, 43, -58, 123, -3, -58, -6, -46, -11, -58, -97, -156, 93, 11, 177, -73, -71, 66, -166, 1, -17, -85, 99, -78, -157, -151, 19, -33, 117, -86, -116, 33, 74, 3, 98, 92, -50, 79, 23, -65, 4, -66, -68, 14, 49, -103, -102, -30, 5, 181, -124, -52, 87, 46}
, {-12, 39, -80, -20, 36, -35, -2, 36, -31, -7, 12, 110, -55, -15, 6, -13, 0, -2, 70, 34, -80, -54, -66, 37, -95, 101, -103, 1, -15, -44, -56, 32, -69, -22, -54, -61, 8, -3, -57, -18, -11, -38, 43, -21, 22, -61, 16, -4, -61, 60, 43, 1, -16, -56, -26, -29, -32, 62, -10, 78, -104, 103, -1, -19}
, {94, -54, -19, 42, -59, -107, -70, 149, 21, 134, 88, 208, -60, -5, 0, -61, -33, -26, 29, 7, 7, -6, 19, 56, -181, 24, -50, 61, -169, -130, 70, -14, 7, -63, -95, -98, 5, -151, -55, -51, -105, 32, -66, -41, 63, 25, -25, 20, -27, -58, 121, 72, -40, -72, -10, -4, -53, 52, -76, 48, -42, 113, -106, -9}
}
, {{-35, -10, 147, 34, 56, -28, -32, 91, 113, 30, -75, -1, 88, -29, 34, 10, -124, -79, -127, -51, 8, 26, 71, -152, 33, 186, 72, 28, -138, 50, -67, -198, 86, 94, -74, 116, -36, -9, 22, 6, -319, -43, -16, -8, 175, 26, -195, 137, -138, -75, 24, -45, 97, -68, 27, -99, -187, 216, 43, 28, -69, -76, 6, 75}
, {78, 58, 39, 1, -63, 72, 18, 79, -86, 34, 4, -37, -92, -36, 42, -53, 22, -45, -15, 47, 23, 50, -41, 43, -62, -28, -19, -29, 5, 9, -72, -42, 30, -50, 36, 16, 83, 48, -175, -1, -100, -48, 46, -76, 12, -59, 10, 52, 90, -75, 41, -21, -4, -31, -13, -116, -46, 20, 56, 64, -15, -29, -46, 10}
, {2, -67, -41, -105, -30, -37, -32, 144, 64, -134, 16, 20, 2, 95, -17, -27, -76, 11, 61, -101, -93, 59, -43, 60, -8, -30, -30, -33, 45, -27, 0, -36, -137, -92, 20, 117, -109, 183, 77, 91, -179, 63, -119, 112, 25, -84, 197, -27, 79, -93, 8, -29, -73, -38, -38, -116, 92, -33, 22, -123, -47, -10, -51, 18}
}
, {{74, -73, -37, -59, -12, -55, 14, -9, 20, -30, 8, -23, -143, -84, 29, 4, -14, 49, -72, 37, -27, -23, -76, -42, -62, -17, -104, -121, 41, -115, 118, -24, -68, -11, 109, 1, -12, 33, -85, 7, 30, 50, -45, -103, -158, -33, 44, 17, 65, -47, -110, 37, 4, -35, -19, -20, -46, -8, -35, -129, -58, 86, -83, -58}
, {-10, 8, 17, 32, 89, 5, 5, 18, -24, -52, 79, -19, -111, 114, -107, -98, -49, 105, -54, -15, 51, -22, -6, 38, 27, -77, -86, -10, -31, -17, 6, -18, 84, -65, -50, -45, 46, -21, -15, 9, 88, 1, 20, -36, -23, -37, -11, -25, -18, 31, -100, -11, -60, 26, 82, -8, -28, -26, -16, -83, -55, -33, -30, 23}
, {58, 23, -9, 141, 21, -69, 35, 26, 0, 26, 41, -9, -104, 52, 28, -128, -42, -42, 91, 40, -55, -87, 104, 94, 2, 23, -12, 145, -58, -96, -22, 4, -23, 86, -15, -54, 141, -177, 112, -21, 79, 92, 88, -24, -22, -139, -34, -6, -91, 7, -8, -21, -36, -126, -35, -66, -143, -59, 23, 21, -24, 3, 106, -26}
}
, {{81, 66, 103, -13, -22, 112, 10, 28, 22, 27, 12, 27, 52, -30, 4, -31, 26, 22, -85, -71, -12, 37, -30, 51, 18, 60, 84, -17, 30, 58, 3, 70, -42, 31, 5, 9, -25, 65, 60, 44, 58, 3, 14, -21, 13, -18, 47, -97, 85, -34, 31, 14, 25, 64, 122, 37, 28, 21, 3, -25, -63, -45, -50, 29}
, {-64, 57, 10, 39, -3, 34, 83, 72, 15, 93, 33, -41, -36, 15, 15, 46, 116, -27, -47, -9, -18, 22, 93, 104, -47, 34, 28, 24, 72, -33, -92, 16, 0, -7, -4, -49, -30, 59, -12, 21, 60, 22, -11, -4, -65, 31, 73, -44, 26, -78, 98, 7, 79, 61, 6, 5, 21, 38, 44, 76, -70, -82, 96, -35}
, {22, -7, -85, -42, 35, -38, 12, -7, -4, 57, 3, 82, 25, 45, -3, -25, 103, 16, 39, 30, -82, 56, -33, 36, 0, -37, 46, 41, 64, -64, -79, 9, 74, 57, 33, 25, 45, 47, 89, -12, -8, 77, 24, -35, -18, -18, 72, -46, 44, 47, 75, -25, -37, 10, 25, 95, 109, -45, 54, 85, 10, 11, 87, 88}
}
, {{-32, -76, -102, 0, -25, -68, 13, -84, -142, 25, -87, 106, 12, 166, 9, 158, 27, 13, 42, 59, 17, -136, 67, 1, -12, 74, -72, -31, -63, -82, -5, 26, 21, -94, -88, -40, 24, 11, -39, -199, -13, -38, -131, -47, -29, 8, 22, -137, -71, 12, -183, -113, -128, -91, -61, -32, 16, -6, -76, 25, 13, -26, -58, 17}
, {39, -82, -25, 26, -77, 91, -19, -73, 15, -61, -40, 5, 37, -20, 44, -12, -37, 53, -51, 42, 84, -15, 32, -93, -51, 113, 17, -1, -11, -3, 2, -97, 31, -33, 30, -22, 90, -12, 11, 22, -18, -34, 11, 33, 17, 1, -69, 21, 22, 6, 46, -18, -32, -94, -2, 22, -80, 61, -56, 96, 129, -37, -62, 32}
, {-31, -2, -13, 77, -59, -106, -13, 48, 51, -55, 85, 20, 2, -61, -37, 32, 4, -7, -87, 111, -73, -46, -1, -9, -89, 102, 48, -39, 11, -58, 84, 115, 65, -57, 8, -19, 63, -148, -141, -26, -70, 114, 49, -56, -16, 40, -47, -16, -37, -27, 13, -11, 74, -65, -37, 55, -138, 90, -78, 74, 140, 21, -15, -35}
}
, {{-59, 89, -154, -31, 38, 45, -77, -76, -137, -48, 86, 112, -164, -15, -87, -26, -44, -22, 9, 89, -107, -66, 134, 70, -42, -36, -20, -17, -43, -94, 33, 45, 69, -74, -77, -3, -24, -9, 134, -107, 79, -55, -62, -100, 26, -79, 47, -144, -30, -32, -52, -135, -141, -72, -1, -3, -6, -166, 103, 99, 15, 14, -2, 90}
, {-13, 35, -86, 37, 63, -17, -95, 63, -122, 22, -45, 68, -78, -57, 44, -30, -103, -6, 11, 14, -30, 37, 35, -78, 19, -57, 23, 1, -61, -34, 38, 39, 12, 36, -48, -9, 28, -64, 33, -72, -103, -18, -31, -79, -25, -25, 5, -24, -98, 58, 66, -5, -63, -29, 32, -28, -7, 8, 47, 45, 29, 69, -2, 34}
, {-18, 43, 51, -26, -77, -56, -90, 64, 102, 120, -18, 80, 19, -45, 3, -3, -110, -16, 96, -3, 67, 60, -39, 63, -17, -21, 101, 8, -84, -34, 7, -154, -125, 105, 89, -35, -144, -97, -18, 37, -234, -48, -33, -108, 13, -36, -2, -3, 39, -36, 70, 57, 46, -172, 83, -181, -46, 90, -74, -3, -151, 93, -64, -91}
}
, {{51, 0, -11, -84, 29, -17, -58, -3, -93, 33, -21, 12, -73, -77, -3, -71, 73, 26, 40, 62, -27, -61, -27, -57, -30, 11, 6, -65, -23, -74, 11, 126, -25, -9, 75, 2, 54, 0, -77, -33, 6, -72, -21, -68, -5, -100, -69, -129, 39, 13, -28, -24, -34, 7, 12, 52, -39, -16, -47, -81, 70, -31, -66, 6}
, {37, 3, 31, 67, -21, -6, -91, 18, 2, -7, 44, -1, -36, -82, 38, 50, -24, -67, -20, 21, -8, -29, -29, -18, 12, 14, -64, -68, 10, -8, -8, -28, -29, -54, 20, 13, -97, 53, 36, 48, -42, 18, 0, 9, -78, -55, 0, -8, -7, -16, 66, -42, 21, 17, -15, -9, -72, -2, 31, -83, 7, -11, -34, -39}
, {40, 8, -80, -36, 16, -29, -64, 82, 48, 47, 3, 17, 40, 59, -65, 70, -2, -1, -10, 69, -9, 26, -34, 19, -4, 15, 21, -54, 13, -22, -27, 29, 139, 43, 12, -48, -18, 103, -18, -48, 107, 91, -32, 51, -56, -8, -2, -65, 86, 185, -31, 82, -72, 63, 1, 62, 29, 29, 91, -2, 207, -26, -13, -38}
}
, {{11, 95, -13, -7, -19, 101, 87, 8, -9, 43, 38, -71, 20, 76, -26, 60, 75, -44, 31, -6, 122, 12, 51, 4, 29, 11, -5, 55, 103, 36, -25, 65, -18, 40, 64, -56, -73, 20, 134, 71, 31, 36, 58, 52, -10, 23, -36, -43, 26, 23, 16, 37, 45, -7, 53, -42, 63, 14, 48, 23, -49, 22, 97, 45}
, {-29, 116, 41, 26, -13, 16, 12, 43, -9, 56, 53, 26, 4, 46, 18, -23, -11, -114, 61, -6, -54, -43, 62, 140, 25, -34, 37, 48, -16, -32, 4, 39, -20, 37, 5, -13, -55, 8, 134, 37, 98, 72, 11, -2, 9, 3, 35, -38, 36, 11, -7, -24, -45, 35, 73, 16, 57, 34, 70, 1, -77, 12, 48, -56}
, {17, 57, 16, 94, -3, 27, 44, 86, -10, 94, 40, 52, -82, 24, -63, -41, 22, -94, 2, 30, 2, -75, 52, 88, 0, -53, 39, 69, -103, -98, 88, 62, 7, -41, -86, -88, -26, -39, 98, -52, 41, 133, -1, 64, 66, -65, 9, -4, -67, -25, 56, -43, -19, 47, -17, 53, -5, 9, 51, 137, -39, 50, 107, -1}
}
, {{111, -20, 37, -10, -38, -86, -33, 5, 41, -50, 95, 148, -88, -133, 49, 67, 47, 5, -18, 14, -62, 45, -92, -6, -73, 9, 32, -18, 51, -116, 127, -60, -36, 74, -18, 17, 35, -91, -147, 33, -15, 10, -49, -124, -30, -19, -7, 70, 81, -2, 46, 45, 65, -5, -132, -4, 12, 78, 22, -133, 95, 326, -33, -170}
, {-74, -63, -5, -70, 61, 34, -81, -30, -55, 4, -41, 100, -31, 27, 8, -30, -80, 29, -7, 98, -3, -7, -13, -142, 48, 49, -23, -81, -29, 64, 20, -20, 24, -51, -60, 37, 67, 32, -19, -29, 14, -125, -46, 18, -5, -9, -65, -75, 18, -34, 12, 13, -115, 40, -73, 43, 19, 1, -20, -72, 23, -47, -101, 24}
, {-49, -61, 7, -14, -13, 105, -47, 1, -47, 44, 59, 155, -19, -77, -116, -29, -21, 83, -3, 7, 36, 72, -38, 74, 45, 7, 32, -1, -7, 107, 22, 16, 67, 24, 47, 83, -17, 71, 10, 4, 73, -45, 21, -22, 20, -64, 23, 1, -47, -58, 67, -133, 29, 108, 68, -22, 1, 22, 48, 130, -48, -27, 30, 20}
}
, {{4, -12, 12, 30, 35, 41, 12, -79, -52, 114, -38, 82, 85, 69, -52, -49, 30, -27, -17, 14, -2, 16, 56, 109, -114, 83, -35, 36, -20, -74, 28, 31, 3, -61, -69, -66, -29, 41, 42, 5, 103, -48, -89, 50, -118, -26, -14, -57, -61, -67, -72, 62, -27, 16, 3, -116, -45, 50, -7, 11, 31, -4, -80, -33}
, {-73, -6, 69, -52, -35, 76, 6, 142, -51, 42, -50, -1, -7, 47, 13, -57, 14, -42, 31, -16, 0, -19, 28, -3, -7, 31, 37, -5, -57, 44, -15, 96, 91, 2, 62, 163, 28, -31, 17, 122, -98, 44, -7, -87, -98, 1, 12, -19, 94, 55, 80, -8, -15, 26, -25, 54, -68, -39, 36, -97, -19, 74, 7, -40}
, {-26, -113, -175, 22, -43, 16, 2, -81, -164, -106, -72, -61, -37, 70, -76, -30, 40, -55, -24, -51, -62, 53, -85, -16, -17, -35, -13, 23, 27, 46, 2, 53, 17, -40, -16, 26, -29, 45, -67, -47, 73, 114, -82, -10, 19, -103, 7, 18, 16, 69, -37, -124, -25, -20, -81, 123, 101, -149, 38, -28, 59, -50, -63, -2}
}
, {{-19, 74, -110, -81, 67, 72, 34, -157, -126, -49, 47, -58, 47, -1, -90, -118, 55, -27, 120, 60, 0, 8, 12, 134, -104, 37, 35, 61, 36, -10, -15, 78, -24, 19, 75, -55, -36, 33, 64, 29, 136, -74, -14, -55, -31, -168, 85, -128, 16, -7, -28, 39, 59, -11, 78, 5, 54, -13, 105, -5, -30, -3, -61, -90}
, {-39, 0, -21, -74, -34, -9, 50, 9, -14, 0, 76, -4, -29, -53, 14, 6, -31, 30, -11, 60, 7, 1, -14, -1, 19, -7, 20, -86, -89, 4, 22, -176, -62, -6, -3, -15, -72, -22, -68, 55, -38, -82, -79, -7, 52, -41, -53, -56, -12, -77, -76, -70, -22, -20, 28, -88, -106, 24, -78, -143, -31, -100, -59, -62}
, {38, -102, -4, 200, -103, -102, 32, 3, 39, 58, -102, 34, -4, -114, 3, 1, -73, 136, -194, 95, -25, -59, 80, 18, -174, -28, 80, 27, -168, -42, -22, -69, 61, -55, -101, -49, 81, -208, -140, -145, -85, -20, 62, -89, 8, 87, -120, -17, -207, 79, -8, -39, -20, 6, -94, -23, -166, 35, -127, 13, -49, -61, -19, -54}
}
, {{-54, -72, -7, 20, 10, 9, 69, -82, -47, 17, -24, 5, -9, -36, 72, -36, 47, -45, 106, 23, 6, 93, -70, 82, 19, 5, 44, 70, -24, -34, -101, 75, 31, -34, -111, -121, 132, 86, 39, -12, -11, -48, 77, 35, 14, 85, -16, -60, 53, -105, 22, -15, 23, 26, 61, -25, 61, -56, 104, 114, 36, 42, 139, 81}
, {-89, 71, 19, -55, -64, 38, 34, 46, -1, 6, -17, 20, -16, -13, 45, 28, 13, 4, -7, -50, -86, -20, -18, 39, 29, -7, 22, 94, -18, 26, -43, 16, -120, -36, -21, -49, -64, -1, -102, 40, -53, 49, -60, -6, -79, -69, 62, 69, -45, -29, 27, 55, -33, -3, -14, -74, 7, 38, 25, -110, -40, 2, 50, 46}
, {55, -26, 22, 102, 127, -30, 151, 5, 4, 21, -3, 25, -95, -79, -8, -107, -35, 55, -114, 121, -61, 71, 102, 75, -62, 59, 45, 182, -84, -95, 17, -30, 53, -30, -109, -54, 82, -118, -28, -42, 132, -86, 76, -1, 28, 24, -52, 107, -125, 7, 31, 45, -3, 56, 35, -49, 19, 20, -55, 77, -26, -91, 141, -14}
}
, {{-18, -137, -16, -9, -27, -51, 61, -136, 1, -147, 17, -31, -3, 3, -6, -38, -75, -32, -24, 38, 47, 10, 31, 103, -74, -100, 114, 9, 11, -37, 10, -19, -49, -83, -128, -33, 113, -38, -15, -86, 176, -33, -61, -99, 71, -29, 24, -21, -114, 32, 9, -124, -79, -5, 74, -33, 147, -96, 39, 157, -40, 41, -100, -9}
, {14, -44, 20, -8, 22, -15, 93, 42, 38, 16, -9, 53, -69, -41, -46, 29, -31, 50, -22, -10, 3, 37, 96, 18, -5, -110, -50, 34, -119, 44, 36, 52, 30, -76, 41, -56, -45, -84, 136, -28, 20, -15, -29, -92, 35, -17, -66, 2, -8, -11, 75, -17, 82, 14, -10, -59, -45, -73, -55, -12, -75, 123, 67, 45}
, {-5, 66, -98, -50, 36, 198, -34, -15, -37, -54, -33, 1, -34, -21, -105, 25, 84, 87, 31, 20, 56, -21, -5, 26, 107, -41, 5, -72, -20, 131, -8, -2, 6, -36, 65, -20, 14, 43, 51, 40, 103, -159, 20, -103, -46, -40, -13, -3, 14, 54, -77, 19, 30, 60, 56, 51, 9, -13, 134, 42, -66, -91, 16, 27}
}
, {{10, 37, 13, 9, 15, 34, 15, 83, -28, 91, 65, 105, 66, 5, -115, 128, -1, -15, 77, -35, 33, 112, 21, 54, 27, -67, 85, 45, 12, 37, -15, 47, -17, 95, 70, -59, -36, -9, 37, -113, 60, 101, 20, 45, 19, 122, 126, 49, -38, -37, 96, -36, 71, 18, -53, 14, 74, -41, -28, 31, -29, 126, 68, 29}
, {-31, 34, 33, 0, 34, 39, 36, -27, 48, 15, 56, 5, 21, 19, -68, 17, -6, -30, 31, -78, 35, 68, 40, 25, -18, 63, 11, 6, 29, 65, -45, -21, 3, 19, 12, 31, 29, -10, 44, -11, 50, 10, -1, -45, 74, 70, -11, 19, 29, -53, 9, -53, -13, 31, 62, -1, 31, -21, 15, 98, -40, -84, 33, 0}
, {58, 36, 76, 47, 47, -5, 31, -33, 55, 154, 64, 142, 60, -42, -22, 18, -5, -52, 21, 25, 11, 39, 68, 94, -17, 88, 1, 73, 49, 62, -17, 8, -25, 47, 47, -17, -9, -46, 30, 21, 66, -15, -2, -32, 86, 124, 40, 39, 23, -78, 128, 66, 41, 28, -19, 27, -27, 105, 12, 138, -28, 39, 89, 29}
}
, {{-95, -51, -61, -4, 35, -32, 54, 66, -56, 26, 40, -35, -19, 9, 35, -1, 50, -5, 6, 66, 46, -12, -56, 9, 18, -60, 47, 2, 65, 49, 11, 47, 60, -58, -69, 60, 72, 31, -30, 9, 68, 81, 19, -54, -90, 30, -40, 41, 50, 13, 44, 45, 13, -22, 0, 107, 48, 33, -72, -58, 124, -47, 55, -12}
, {-80, 46, -26, 0, 56, -4, -26, -75, -40, 39, -4, 4, 56, 59, -65, -39, 21, -24, 51, 0, 5, -46, 29, 74, -20, -4, 12, 42, -23, 27, -3, 118, 35, -28, 7, 1, 83, -14, 138, -14, 59, 30, 79, -10, -12, 33, -37, -65, 73, 87, 29, 46, 28, 50, 76, 40, 69, -96, 115, 13, 106, -1, 24, 76}
, {-2, -98, -25, 40, 66, 4, 21, -33, -52, -95, -22, -89, 63, -15, -105, -44, -49, -92, -50, 68, 23, 35, -7, 54, -6, -92, 56, 83, 122, 74, -97, -23, 87, 82, -5, -46, -56, -40, -41, -13, 28, 58, -44, -4, 7, 98, 56, -8, 88, 16, 23, 11, -40, 58, 27, 75, -17, 26, 68, 33, 152, 5, -61, 82}
}
, {{-44, 36, -32, -25, 84, 13, -10, -117, -26, -16, -14, -168, 40, 140, -97, -25, 35, -100, 26, -128, 35, -86, 23, 74, -22, -42, 76, -25, 15, -30, -13, 117, 102, -44, -91, 17, -12, 106, 73, -64, 133, -56, -22, -22, -23, -52, -9, -55, 29, -129, -32, 50, -45, 29, 63, 80, -1, -88, 50, 75, 24, -4, 29, 97}
, {7, 3, 41, -22, -37, 59, 95, 26, 18, 40, -13, 4, 13, 86, 47, -22, 33, -90, 9, -4, 13, 23, -34, -2, -23, 60, 13, 30, 30, 58, -35, 77, 8, 55, 27, 45, 9, 30, 53, 14, 21, 44, 48, -16, 22, -61, 134, 36, 65, -68, 49, 46, 37, 108, 58, 48, 32, -1, -33, -24, -89, 13, -37, -54}
, {3, 76, 105, -12, 103, -38, 24, 70, 3, 59, 86, 3, 44, 65, 5, -44, 64, -79, 41, -2, -46, -27, -49, 56, -7, 111, 22, 20, 70, 37, 59, 41, 14, -41, -10, 51, 29, 4, 26, 17, 35, 109, 19, -6, 24, -14, 50, -65, 26, -66, 101, 102, 27, 105, -68, 71, 38, 23, 26, -47, 52, 18, -99, -9}
}
, {{202, 18, 5, -66, 86, -52, -43, 43, 21, 15, -81, 42, -118, 67, -126, 21, 4, 2, 74, 22, -36, 32, 48, 7, 43, 32, -14, 92, 14, -67, 58, -61, -12, 42, -72, -78, -39, 18, 79, -77, 108, -86, -18, 8, -24, -131, -24, -2, -53, 27, 13, -7, 26, 66, 22, -58, 93, 20, -4, 11, 12, 276, 19, 46}
, {-68, -23, 66, 4, 36, -44, 13, 33, 30, 1, -88, 43, 61, 68, 53, 96, -16, -46, 53, -19, 21, -134, 60, -34, 28, 88, -13, 11, 11, -7, 30, -132, -32, -74, 18, -29, -14, 72, 61, -39, -59, -57, 108, -34, -76, -76, -37, 119, -67, -155, 32, 5, -14, -89, -30, -59, -19, 66, -123, -8, -91, 79, -67, 63}
, {-11, 53, 113, 124, 17, -20, -31, 43, -24, 67, 85, -30, -45, 23, 7, -55, 18, -69, -13, -65, -67, -133, -100, 117, -82, 101, 12, 90, -115, -60, 33, -6, 64, -35, -121, -67, 218, 16, 49, -28, 18, 106, 133, -45, 100, -72, -17, 52, -87, 86, 55, 21, 50, 9, 23, -11, -2, 48, -12, 104, -18, 75, 10, 8}
}
, {{155, 24, 69, -5, -86, 37, -155, 155, 31, 35, 132, 121, -42, -115, -16, 65, 27, 37, 69, 64, 69, 126, -60, 75, -83, -7, 40, 33, 93, -98, 55, 4, -50, 52, 60, -26, 52, -65, 89, 134, 4, -17, -67, -20, 34, -96, -38, 110, -13, 80, 49, 87, 110, 56, -31, -150, -33, 137, 80, -85, 16, 133, 61, -101}
, {-17, -24, 17, -7, -27, -33, -27, 73, 53, 13, 88, 36, 3, 38, 67, 20, -11, -34, 1, -27, 49, -95, -61, 63, -38, -21, 21, -35, 18, -42, -65, -65, 47, -54, 16, 33, 38, 72, -20, 117, -200, 39, -51, -79, 2, 7, -53, 73, 5, -27, -24, 22, 21, 26, -13, 22, -96, -2, 39, 5, 39, 87, -98, 43}
, {-24, 23, -42, -17, -117, 70, -46, -5, 90, 39, -52, -68, -18, -149, 8, 26, -18, 1, 66, -54, -33, -2, -45, -46, 26, 39, 41, 4, 43, 124, -189, -37, -15, 34, 101, 105, 9, 50, -29, 141, -208, -9, -47, -56, -86, -47, 27, 16, 136, 40, 37, 0, 76, -136, 35, -6, -43, 29, 4, -24, 2, -29, -46, 13}
}
, {{-45, 20, 19, 19, -28, -51, 9, -29, 7, 73, -26, -46, 100, 60, 129, 75, -5, 26, 55, -110, 40, -69, -5, 6, 59, 57, -27, 37, 11, 39, 1, -155, 101, -33, -46, 0, 58, 46, -9, 35, -177, -53, 49, 21, -95, 54, -88, -1, 20, -122, -9, -25, 24, -5, 53, -43, -8, 42, -24, -8, -94, -157, -34, 66}
, {43, 13, 85, 65, -116, 30, -62, 57, -15, 42, 107, 8, 19, -33, -16, 48, 65, -33, 15, -22, 6, 21, -16, -41, 8, 40, 87, 82, 74, 72, -27, -12, -65, 58, 110, 40, 56, 130, -21, 131, -8, 63, -38, 54, 27, -3, 0, 81, 113, -37, 48, -8, 39, 68, 51, -26, -62, 88, 70, -33, -111, 51, 18, 39}
, {37, -17, -70, 28, -13, 30, -4, 54, 13, 13, 120, 12, 107, -16, 5, 28, 3, 9, -36, -22, 4, -25, -2, 71, 46, 29, 71, 45, 15, -72, -5, 44, 79, 31, -75, 113, 150, -1, -30, -33, 55, -64, 64, -78, -61, 22, -23, 24, 33, -32, 0, -15, -4, 91, -10, 138, 39, 55, 20, -1, 89, -45, -35, 93}
}
, {{-56, -105, -13, -62, -48, 87, 68, 56, -79, -13, 33, -63, -35, 60, 35, 1, -56, 21, 13, -11, 19, -7, -100, -64, 82, -58, -53, -53, -26, 136, -14, 46, 38, 61, 23, 54, 47, 17, -25, 49, 0, -71, 49, 9, -2, -27, -41, 64, 79, -42, 20, -53, 1, 9, 26, 58, 18, -13, -45, 17, 49, -94, 21, 36}
, {41, 119, -64, 16, 85, -30, 41, 85, 65, 39, 57, -118, 0, 38, -78, -27, 34, -70, 40, -8, -32, -56, -27, -47, -20, 33, -51, 138, 63, 75, 25, 90, 109, 94, -7, -22, 35, 16, 24, 58, -59, 84, 17, -44, -25, 21, -32, 11, -13, -14, -7, 51, -24, 100, -44, 4, -41, 42, 48, -63, -7, 50, 90, 13}
, {5, -39, -148, -45, 20, 10, 75, -54, 23, 58, 60, -36, 127, -11, -43, -37, 71, 21, 21, -97, 38, 26, -128, 42, 36, 5, -10, 11, 31, 82, -102, -25, -13, 72, 25, 0, 44, -19, 26, 77, 19, 8, 15, -8, 5, 6, 2, -25, 139, 14, 26, -16, 18, 38, 115, 66, -23, 63, 7, 1, 64, -88, 70, 73}
}
, {{5, 89, -160, 8, -47, 78, -83, 40, -169, -72, -44, 1, -105, -76, 21, -33, 72, -14, -14, 137, -119, 21, -51, -46, -32, -1, -66, -50, -8, 80, -37, 101, -46, -152, 144, 60, 87, -12, -52, -37, 99, -37, -95, -43, 0, -70, 59, -101, 16, -56, -16, -70, 6, 94, -84, 76, 54, -6, 86, -1, 86, -37, -53, -67}
, {-114, -12, -18, -154, -65, 75, 7, -18, -106, -29, 92, -74, 9, -7, -60, -24, 4, -36, -34, 13, 47, 23, -132, 100, -20, -57, 26, 15, -23, 92, 18, 25, 7, -67, -1, -42, 29, -6, 12, -53, -6, -40, -84, -71, -19, -32, 30, -68, -43, -60, -7, -1, 8, 58, 31, 75, 98, 46, 84, 55, 18, -57, 13, 26}
, {-50, 81, 32, 5, 28, -12, 25, 97, 66, 41, 97, 12, -51, 40, -48, 0, 52, 29, 11, -69, 68, -17, 68, 107, 83, -43, 33, 71, -38, -2, -7, 85, 4, 26, 25, 52, -76, -7, 55, 21, 177, 20, 0, -40, 41, -24, -66, -65, -7, -27, -81, -58, -19, 75, 62, -49, -1, 73, 45, -24, -92, 15, 93, -32}
}
, {{44, -82, -32, -45, 95, 36, 57, 129, 86, 3, 5, 33, 17, -34, -53, 128, -28, -30, -47, 27, -1, 42, 22, 44, -83, 77, -32, -69, -56, -74, -45, 4, -15, -103, -20, -3, -47, 14, -45, -53, 99, -32, -45, -107, 11, -25, 95, -79, -80, 5, -20, -58, 6, -27, -168, -55, -39, 96, 72, -59, -49, 95, -121, -65}
, {1, 46, -6, -11, -38, -19, -14, 26, -16, -107, -16, 22, -27, -120, -79, -24, -93, -11, -22, -14, -112, -32, -35, 10, 34, 165, 34, -72, 9, -29, 83, 9, 22, -11, -35, -1, 53, -42, 39, -34, 61, -89, -86, -44, -15, -43, 98, -83, -60, 51, 27, -69, -50, 13, -98, -13, -59, -39, -22, 44, -11, 16, 25, 32}
, {42, 52, 38, -28, -86, -63, -13, 20, 37, -26, -29, -7, -80, 78, 27, -15, -69, -79, 62, 17, -41, -71, -34, -91, -16, 135, -90, 31, -9, -31, -73, 43, -18, -21, 129, 37, -160, 27, -36, 42, -72, 2, -119, 27, -111, -53, -28, -24, 97, 36, 49, -39, -96, -66, 113, 13, -29, 74, -98, -103, -2, 19, 4, -68}
}
, {{17, 49, -19, 27, 107, 122, 56, -6, -37, -17, 47, 1, -8, 16, -30, -18, -70, -80, 6, 29, 35, 19, -19, 55, 8, 26, 15, 7, 60, -24, 0, 47, 103, 64, -47, 13, 7, -5, 65, 92, 141, -29, -12, -1, 54, 7, 74, -8, 24, 53, 99, 35, 58, 16, -1, 37, 101, 53, 58, 117, 63, 47, 32, 73}
, {-52, 31, 16, 26, -22, 13, 9, 34, -36, 12, 75, 4, 41, 39, -107, 78, 76, -15, 55, 4, 6, 63, 31, 32, -12, 97, -8, 12, 52, -43, 47, 55, -68, -61, 49, 79, 72, -15, 50, 34, -25, 58, -7, -59, -99, 15, 78, 19, 59, -32, 74, 107, 42, 75, 47, 5, -1, 44, -4, 105, 6, 120, 46, 57}
, {47, 9, -15, -30, -7, 10, 39, -3, 29, 10, 27, 19, 8, 87, -120, 108, 101, 40, 98, 22, -19, 84, -25, 92, 55, 22, 14, -60, -6, 106, -39, 191, -53, -109, 22, 13, 103, 53, -1, 50, 83, 69, 6, -39, -20, 21, 107, -21, 45, -174, 86, 57, 6, 78, 13, 117, 12, 82, 93, 53, 49, 36, -15, 56}
}
, {{-40, 48, 7, 131, 49, -82, 10, -10, 72, 95, 67, 7, -35, -9, 67, -18, -5, -57, -27, -77, 5, -105, -50, -33, 59, -35, 39, 26, -24, 2, -35, -127, 97, 0, -57, -69, 105, -17, -64, 28, -260, 37, 8, 32, -38, 62, 5, 84, 21, -6, 95, 29, 21, 14, -5, -87, -67, 47, -36, 37, -33, -55, 86, 25}
, {-11, -23, -30, 95, 9, -11, -68, 19, 14, 70, 63, -45, -19, 45, 28, 29, 34, -119, 6, -46, -8, 2, 47, -17, 18, -53, 76, 28, -62, 13, -50, 9, 105, 14, -38, -44, -18, 54, -55, 82, -27, 61, 89, 26, -54, 9, 4, 134, 42, -40, -11, 17, 26, 34, 1, -2, 49, -29, -46, 60, 57, -39, 62, 25}
, {3, -26, -17, 95, 17, -1, -28, -55, 70, 104, 75, 28, -105, -55, 6, -27, 28, -1, -58, -86, -18, -9, 53, 57, -50, -79, -34, 37, -38, 32, 40, 37, 186, 19, -45, 126, 69, -26, -63, 79, 83, 78, 15, -24, -32, 66, 2, 115, 20, 30, 39, 0, 3, 111, 35, 94, 35, -23, -8, 116, 148, 120, 223, 15}
}
, {{-103, 56, 67, -21, 67, 5, -71, 40, -29, 7, 5, 55, 111, 0, -120, -18, 11, -80, 64, -56, 13, 105, -43, 53, -81, 44, 69, 83, 71, -1, -71, 112, 88, 47, 24, 74, 61, 10, -27, 63, 49, 97, 157, -39, -100, 37, 47, 43, 27, -1, 11, 72, 80, 22, -74, 2, 11, 50, -6, 69, 113, 162, 97, -89}
, {-151, 34, -24, -18, -31, 39, 18, -130, 13, 23, 23, 33, 74, -81, -82, -8, 57, -40, 35, -55, 72, 89, -99, 11, -29, 1, 44, -19, 45, 61, -101, 37, 36, -3, -20, 7, 93, -10, 41, -37, 50, 42, 95, 53, -35, -36, -32, 83, -21, -83, 46, -9, -28, 19, 68, 68, 51, -15, -18, 74, 82, -57, -11, -5}
, {-144, 39, 1, 29, 29, 15, 3, -106, -71, 64, -45, -8, -52, 6, -56, -48, 139, -32, 50, -91, 25, 74, -20, -19, 29, 26, 40, 20, 93, -65, 40, 110, -50, 87, -109, -4, 67, -54, -74, -20, -47, 97, -1, -59, 163, -24, 72, -1, 79, 7, 20, 12, 59, -1, -65, 52, 25, 18, 49, 34, 130, 24, -30, -47}
}
, {{45, -43, -61, 8, -98, -92, 13, -31, -18, 75, 45, 92, -13, -84, 45, 43, -54, 53, -20, -6, -16, -5, -50, -19, -162, 10, 4, -85, -58, -70, 83, 31, 1, -29, -24, 90, -10, -26, -111, -19, -26, 46, -96, -106, 46, 89, -7, -43, -74, -16, 17, -3, 42, 21, -118, -20, -1, -7, 56, 12, 43, 127, -74, -14}
, {23, 54, -49, -3, -46, 68, -38, -8, -38, 27, 32, 102, 11, -85, -69, 16, 9, -13, 18, -10, 12, 13, -100, -42, -24, -5, 4, 35, -49, -50, 19, -23, -39, -78, -35, 60, -5, -149, -4, 69, -26, -9, -44, -76, 7, 31, 32, 26, 46, -18, 125, -35, 0, 37, -101, -22, 15, 56, 63, 9, -15, 18, -33, -94}
, {30, 11, -55, 67, 41, 12, -7, -47, -81, 18, 23, 181, -89, 46, -98, 38, -41, 15, 36, 5, -83, 18, 97, 40, -93, -50, -62, -51, -21, -116, -8, 1, -62, -11, -49, -106, 22, -182, 70, -33, -29, 59, 2, -20, -37, 68, -41, -112, -98, 155, 22, -70, -51, -45, -117, 82, -86, -88, -15, 23, -43, 91, -205, -72}
}
, {{-25, -92, 159, 15, -80, -76, -72, -30, 127, -56, 17, 35, -38, -115, 174, -10, 73, 46, -46, -224, -144, -143, -13, -46, 43, -112, -6, -23, -56, -34, -78, -123, 17, 120, -25, 73, 25, 40, -143, 39, -232, 63, 13, 19, -164, 74, -115, 322, 97, -65, 74, 68, 38, 37, -121, 6, -58, -92, 38, -25, -45, -25, 20, 32}
, {108, -8, -160, -47, 18, 12, 34, 10, -35, -57, 53, -17, -73, 39, -10, -14, 22, 87, -1, -37, -86, 19, -148, -33, -58, 61, -92, -162, 0, 23, -82, 31, 21, -124, -86, 115, 74, 33, -51, -73, -2, -76, -4, 93, -53, 26, -22, 147, -24, 7, 0, -22, -28, -57, 47, 37, 21, -40, 19, -95, -11, -36, -28, 41}
, {39, 61, 7, 33, 75, -54, 208, 60, 91, -85, 20, -66, 8, 25, 44, 23, -28, -64, -3, -4, -16, -52, -17, -11, -27, 43, 33, 92, -29, -23, 5, 6, -34, -51, -79, 24, 15, -70, 47, -8, -33, -103, 0, -9, 37, 34, -64, -102, -54, -28, 52, 22, -107, -102, 27, -33, -82, 221, -9, -62, -31, -38, -10, -7}
}
, {{-67, 91, 51, 67, 29, 54, -54, 8, -4, -15, 41, 7, 142, -75, 11, 7, 35, 27, -65, -52, 6, 45, 43, -31, -29, 58, 222, -25, -30, -18, 20, 45, 103, 121, 110, 111, 47, 54, -34, 162, 15, -6, -64, -118, -30, 133, -93, 84, 72, -39, 191, 86, 39, 27, -14, 33, 12, 89, 32, 56, 29, 1, 41, -16}
, {-40, 47, -78, 15, -34, 73, 71, 7, -71, 24, 0, 84, 32, 35, 32, 74, 45, 11, -17, -17, -37, 79, -57, -27, -85, 20, 119, -22, 68, 30, 18, 57, 44, -7, 34, 41, 106, 51, -23, 89, 4, 69, -14, 18, -13, 121, -27, -103, -2, -54, 102, 58, 14, 80, 52, 24, 131, -48, 2, -23, 70, -62, 39, 50}
, {-44, 64, -73, -18, -14, -56, 110, -1, 45, 29, 25, -9, -99, 85, -79, 83, 3, -31, -7, 19, -11, 42, -34, 53, 15, -72, 24, -14, 26, 45, -35, 36, 45, 67, -19, 81, 56, 50, -15, 8, -11, 24, 56, 49, -3, 3, 118, -24, -4, -70, 13, -30, 1, 86, -49, 38, 40, 6, -54, 44, 44, -11, -5, 100}
}
, {{80, -17, -55, -39, -88, 103, -47, 79, -111, -17, 101, 119, 16, -110, -111, 52, 41, -60, 50, -9, -31, 117, -92, 49, -65, -17, 7, 95, -9, 29, -34, 93, 5, -1, 53, 120, 64, -38, 25, 45, 10, 28, -66, -73, 6, 37, 126, -6, 115, 61, 116, -97, 85, 45, 34, 43, -31, -85, 54, 72, 79, 50, 154, -118}
, {-44, -4, -31, -88, -13, 17, 1, -115, 45, -25, 19, -4, 9, -43, -19, 36, 19, -1, 51, -9, 8, 46, -65, 57, -48, 15, -1, 8, 63, 46, -67, 106, 38, -27, 35, 44, -52, 4, 43, -19, -1, 27, -7, -48, -47, 76, 44, -69, 95, 14, -68, -36, 69, -15, -35, 93, 32, 12, 31, -69, 34, 57, -51, -5}
, {-67, 35, 32, -16, -17, -40, 23, -34, 87, -31, -39, 48, 97, -28, -22, 33, 49, -76, 72, -27, 102, -46, -13, 90, -32, 19, -7, 20, -1, 16, -78, 14, -29, 46, 45, 10, -62, 73, 69, 83, 7, -22, 5, -79, 25, 8, -32, -68, 104, -16, 0, 72, -70, 81, 26, -103, -18, 34, 75, 40, -49, 60, 18, -3}
}
, {{3, -68, 154, -52, -110, 29, -4, 98, 119, 45, 27, 48, -52, -46, -3, 3, -39, 64, -51, -52, 64, -57, -14, 8, -104, -57, 31, 19, -74, 1, -31, -162, -106, -10, 43, 60, 9, -69, 98, 129, -192, 102, 22, 6, 45, 6, -97, 46, -3, -48, 37, 19, 73, 56, -47, -94, -88, 42, -102, -87, -104, 1, -14, -44}
, {-5, 57, 40, -30, -4, 1, 10, -26, 48, 51, 1, 31, 30, -17, 90, 60, -51, -48, -66, -35, -54, 51, 52, -9, -38, -68, 30, -53, -55, -54, 17, -12, -20, -27, 83, -118, -93, 39, 34, 9, 75, 50, -124, -32, 90, 1, 13, 16, -41, 62, -65, -98, 11, -3, -34, -158, 19, -51, 65, -18, -35, 63, 13, -75}
, {35, 23, 65, -21, -53, 20, -118, 6, 71, 84, 13, 44, 81, -35, 93, 12, -3, 7, -23, -50, 58, -55, 7, -24, -65, 9, 32, -54, 21, 4, 144, -109, -99, 7, 98, 38, -50, 62, -54, 47, -26, 27, -97, 75, 34, -29, 18, 8, -33, -87, 69, -101, 33, 13, -10, -337, 24, 7, 3, -92, -162, 88, -128, -29}
}
, {{-28, 29, 89, -125, -3, -72, 99, 71, 62, -59, 189, 8, -20, -1, 19, 85, 27, 88, -31, 90, 42, -6, -64, 42, -104, -42, -51, -80, -69, -102, 72, -6, -69, -144, -61, 30, 13, 11, -58, -72, -22, -32, -20, 2, -58, 93, 25, 28, -63, 65, 145, 48, 74, 0, -178, 36, -15, 79, -137, -90, 77, -33, -2, -100}
, {14, 1, -82, -15, 5, -12, 21, -94, -38, -15, -7, -101, -8, 14, -74, 0, -36, -6, -120, 87, -95, -55, -78, -28, -92, -7, -31, -7, -30, -27, 36, -66, -3, -99, -64, 19, 157, 51, -94, -23, 60, -24, -46, -27, -20, 16, -57, -5, -79, 2, 1, -16, -31, -11, -43, 15, 85, 14, -69, 46, 25, 23, -11, 7}
, {-107, 44, 120, 40, 20, 26, -91, 13, 145, 40, -92, 77, 34, -31, -108, -52, -262, -88, 153, 29, -2, 156, 178, 113, -14, 214, 75, 70, -86, 6, -67, -81, -71, 49, 20, 91, -179, 116, 35, 42, -173, -90, -7, 49, -155, 12, 37, 122, 66, 35, 168, 24, -40, -213, 82, -198, -124, 210, -15, 8, -127, -47, -70, 16}
}
, {{20, 33, -3, 31, 10, 15, 48, -7, 28, 61, 76, -70, 85, -16, -84, -120, 7, -72, 84, -25, -3, 4, -87, 71, 18, -3, 25, 119, 29, 57, -26, -15, 33, 13, -48, 35, 13, 2, 110, -27, 13, 2, 57, 67, 74, 108, 22, -55, 40, -42, 21, 49, 81, 57, 58, 18, 59, 15, -29, -57, -85, -19, 142, -40}
, {66, 11, 13, 24, 3, -70, 22, 13, -122, 57, 25, 27, -75, 50, -49, 3, 58, -56, -20, -16, 13, -26, 27, 6, 43, 40, -1, 67, 17, 10, 98, 72, 68, 17, 34, -103, 46, 7, 16, 11, 63, 59, 14, 26, 29, 1, -23, -35, 21, 93, 67, -47, 27, 35, 11, -79, -31, -129, -5, -15, -2, 46, 94, -12}
, {14, 58, 27, -52, 38, 91, -70, 30, 17, 108, 106, 80, 60, -45, 33, 10, 86, 98, -17, -145, 20, -2, 65, 15, -34, 76, 43, 17, 145, 19, -29, -49, -5, 6, -44, -3, 40, -62, 161, 10, 10, -54, 86, -21, 55, 19, 49, -68, 56, -45, 37, 54, 39, 51, 81, -78, 170, -48, 42, -47, -13, -8, 88, 144}
}
, {{-2, 141, 53, -79, 32, 93, 36, 67, -96, -19, 77, 39, -36, -57, -134, 35, 83, -99, 46, 110, 22, 106, -98, 73, -150, 51, -42, 85, 37, 28, 0, 69, -111, -39, 63, 8, -59, -54, -16, -29, 134, 11, -64, -52, -24, -54, 119, -78, -66, -12, 23, 24, 112, 117, -10, 58, 28, 80, 150, -46, -20, 95, 25, -93}
, {-55, -54, 110, -52, -3, 15, -22, 69, 44, -17, 34, 32, 93, -61, 53, 89, 22, 9, 20, 11, 81, 80, 27, -1, 8, 13, 33, 15, 39, 61, 12, -62, -73, 33, 35, -3, -116, -22, 3, 7, 12, -22, -47, -101, 81, 19, 55, -30, -12, 59, 31, -10, -30, -69, -10, -6, 2, 117, -31, -26, -42, -48, -2, -26}
, {-80, -18, -9, -54, -63, -12, -2, -52, -108, -99, -13, 34, -77, -30, 53, -57, 99, 6, -165, -45, -93, -95, -113, -86, -60, -21, 33, -75, -8, -4, 38, 126, 193, -66, -62, 67, 3, -61, -143, -25, 7, 17, -93, -23, -82, 30, -32, -2, -40, 142, -55, -153, -29, 51, -140, 157, -8, 15, -76, -13, 148, 50, 67, 0}
}
, {{169, 84, -79, -42, 26, 49, -99, 1, -38, -72, 52, 42, -89, -14, -49, -46, -66, 26, 55, 24, 18, -58, -16, 30, -16, -38, -9, 32, -61, -82, 69, 64, 30, -27, 8, -59, 16, -11, 10, 24, -43, -29, -14, -10, 82, -155, -114, -78, -26, 127, -34, 24, -38, -4, 18, -63, -52, 32, 7, -62, -42, -27, -28, -34}
, {-3, 7, 77, 10, 32, -20, -70, -20, 70, 36, 26, 5, -10, -87, 62, 38, 1, 90, 23, -15, 13, -14, -4, 24, -31, -82, 0, -33, 11, 10, 19, -102, -2, 10, 45, 63, 1, 55, -78, 7, -67, -27, 21, -17, 63, 32, -78, 69, -2, -76, -38, 16, 29, 33, 7, -41, 7, 50, -49, -69, 37, 2, -14, -75}
, {28, -69, -13, 36, -6, 4, 44, -57, -56, -52, -47, -1, -73, -46, 2, 69, 39, 23, -31, 4, -110, -18, -37, -13, -57, -116, 12, 10, -84, 28, 13, 60, 38, 1, -43, 15, 129, -52, -7, 29, -11, -10, -42, -33, -69, 23, -99, -7, -22, 76, 43, -67, 27, 59, -40, 54, -94, -94, 78, 13, 67, -2, 65, -96}
}
, {{-85, -91, -7, 66, 69, 8, 0, 2, 28, 3, 40, -31, -31, 57, -87, -40, -41, -85, 17, -116, 70, 15, 4, -68, -64, -9, 6, 68, 18, 17, -50, -80, 46, 9, 2, -7, -22, 7, -3, -2, -64, -15, 36, -31, 73, 78, 61, 15, 55, -126, -80, -55, -24, 96, 37, -55, 55, -6, 8, -55, -72, -41, -35, 43}
, {-40, 9, -49, -23, 18, 56, -74, -57, 64, 25, 64, 96, 89, 38, -12, 18, 100, -15, 62, -70, -32, 45, -72, 94, 17, 45, 53, 57, -3, 68, -12, 92, 33, 35, 108, 34, -8, 24, -1, -18, -22, 67, -66, -73, -46, 11, 9, 60, 1, -30, 37, -21, -9, 41, 32, 110, 54, 23, 93, 4, 101, 49, 47, 24}
, {-20, 88, 31, 5, -25, 114, -14, 8, 71, 73, 99, -18, 13, -16, -60, -27, 18, -26, -15, -62, 0, -76, -65, 46, -22, -18, 46, 61, 65, 20, -56, -4, 19, 41, -4, 41, 19, -43, 125, -89, -39, 45, 13, 46, -20, -1, 62, 66, -26, -53, 25, 43, 53, 105, 104, 67, 69, 8, 34, 4, -7, -37, 45, 65}
}
, {{-64, -26, 110, -101, -44, 119, -41, 117, 21, -71, 84, 170, -29, -88, -37, -84, 97, -24, -71, -51, 15, 119, -147, -52, -119, -53, 129, -33, -32, 65, -21, 60, -37, 86, 70, 112, -78, -86, -98, 57, -18, 24, -46, -82, -74, 131, 10, 111, 128, 75, 49, 125, 186, 41, -121, 81, 56, 34, -61, -82, 5, 154, 29, -97}
, {-42, -56, -9, -22, 40, 1, 52, -41, -20, -73, 15, 153, 49, 73, -80, -112, -75, 64, -101, -5, 14, -39, -45, -37, -92, 45, 21, -105, -73, 123, -47, 29, 71, -79, -25, -61, 56, -108, 1, -16, 55, -64, -18, -77, 3, 14, -58, -46, -56, 25, 38, 59, -35, 39, 23, 83, 90, 49, -71, 42, 45, 79, -135, 9}
, {142, -47, -57, 142, 17, -71, -20, 72, -1, 133, -5, 19, -72, 53, -13, -126, -70, -25, -38, 0, -43, -99, 53, 67, -68, 10, 37, 49, -198, -142, 141, 50, 8, -12, -175, -174, 78, -127, 47, -66, 52, 84, 51, -154, 29, -13, -34, 7, -160, 4, 65, -17, -101, -20, -110, 38, -136, -24, -69, 119, -14, 117, 65, 14}
}
, {{-7, 73, -44, -3, -28, -63, 27, -4, -179, -8, -61, 97, -8, -64, -97, 36, 12, 48, -84, 62, -23, -20, 23, -17, 11, 20, -13, 0, 59, 15, 144, 71, -1, -16, 29, 2, 10, -27, -63, -4, -6, -53, -124, -128, -30, -100, -65, -130, -62, -43, -2, 7, 13, -24, -126, 4, 28, 57, 33, 22, 127, 54, -30, -84}
, {29, -8, -2, -20, -27, 78, -22, -79, 7, 39, -74, -10, 23, 42, -14, -30, -23, 9, 80, -68, 67, -6, 47, 0, 15, -8, -56, -8, 5, -4, -75, -35, -102, -23, 40, -13, -21, 55, 13, -22, -77, -33, -12, -73, -24, -78, -23, -8, 33, 5, -12, 1, 13, -22, -27, -82, -72, 58, 42, 5, -53, -61, -26, -77}
, {-114, -56, -49, -57, -48, -26, 5, -13, -76, 63, -95, 89, -60, -32, -42, -94, -54, -10, 11, 133, 54, 98, 44, 29, -8, -152, -59, -55, -4, -22, 41, 87, 40, 0, -110, -131, 46, -125, 13, 26, -65, 19, -12, 8, -43, -17, -11, -25, -102, 48, 73, 27, -18, 43, 11, -67, -68, 31, -80, 115, 77, 68, -128, -45}
}
, {{-79, -41, -13, 3, -49, 29, 46, 16, 24, 99, 19, -6, 10, 6, 25, 38, 10, -58, -37, -8, 71, -81, 13, 10, -41, 26, 48, 23, 28, 74, 47, -99, 37, -40, -94, -110, 46, -13, -65, -9, 26, 19, 16, 31, 20, 30, 19, 18, -36, -29, 6, -28, -14, 58, -39, 127, -47, 22, 5, 42, 26, -77, 35, 77}
, {10, 23, -15, 25, -3, 26, 26, 69, -37, 68, 34, -6, 35, -10, -36, 33, -72, -45, 23, 28, 95, 15, 71, 76, -23, -20, 26, -37, 16, -89, 61, 70, 76, -98, -62, 28, 138, -28, -6, -34, 72, 69, 39, -79, 116, 55, 139, 4, 59, -22, 7, 18, -52, 6, -37, -22, 88, -84, -26, 75, 7, -13, 42, 10}
, {-75, -67, -134, -46, 28, 48, -97, -57, -112, -61, 43, -4, -14, 13, -105, -38, 63, 69, -119, -33, -102, -19, 104, -82, 34, -131, 5, 31, 29, 31, -70, 51, 127, 26, 38, 141, 89, -132, 34, 38, 109, -46, -1, -18, -88, 1, 35, 62, -3, -31, 19, -60, 17, 105, -19, 38, 113, -153, 46, 79, 41, 19, -22, 1}
}
, {{28, 82, 111, -6, -75, 0, -70, 81, 24, 1, -16, 40, 33, -123, 0, -35, -31, -49, -37, 22, -3, 27, 17, 94, 30, -10, 120, -50, -29, -2, -48, -65, 79, 139, 104, 35, 57, -19, -64, 211, -82, 5, -34, -19, -65, 61, -6, 24, 2, -5, 161, -11, 29, 29, -11, 13, -82, -51, 65, 57, -55, -23, -7, 32}
, {-59, 38, 11, -52, -16, 42, -69, 49, 6, -63, 50, 86, 5, 12, -24, -17, 47, -4, -27, 7, 28, 15, -68, 48, -45, 7, 100, -57, 0, 39, -53, 8, 35, -8, 35, 37, 19, -19, -17, 33, -12, -34, -22, -101, -63, -54, -73, -10, 22, -32, 31, 32, 29, 20, 13, 1, -8, 25, -20, -148, 10, -16, -68, -27}
, {-25, 39, 120, 12, 28, 99, 0, -19, -23, 55, -50, -10, 24, 97, 25, 72, 100, 36, -8, 14, 23, -50, -68, 59, -72, 22, 48, -5, -42, -26, -55, -2, 91, -39, -16, 86, 30, 33, 34, -10, -44, -44, 9, -42, -124, 46, -76, 22, 82, -13, 112, 53, 33, 22, 42, 97, 21, 75, 22, 3, 96, -45, 5, 115}
}
, {{-7, -6, -40, 45, -93, -100, 27, 52, -2, 42, 68, -47, 64, 31, 53, 106, 32, 61, 30, 112, 52, -60, -28, -54, 42, -26, -1, -10, 83, 35, 45, -8, -63, -33, -33, -57, 2, 7, -52, -12, -3, 14, 20, 16, -53, 66, -12, -19, -52, 31, -185, -33, -25, 60, 43, 15, -32, 44, -90, -102, -15, -31, -35, -75}
, {18, -98, 32, 29, 4, -57, 25, 66, -72, 3, 2, 0, 89, -35, 124, 78, -83, 39, 89, 95, 127, -64, 37, 76, 26, -136, 41, 42, -71, 46, -46, -20, 53, 21, 32, 1, 2, -34, -33, -132, -135, 19, -21, -136, 19, 62, -98, 11, 1, -16, 0, 56, -43, -45, -16, 24, -52, 4, 18, 7, 19, -6, 75, -40}
, {-21, -40, -245, -77, 142, 163, -109, -134, -305, -205, -65, -27, -25, 5, -158, -157, -87, 84, -150, 71, -84, 23, 145, -167, 87, -341, -141, -17, 81, 140, -12, 113, 89, 44, -19, 80, 85, -46, -58, 69, 194, -16, -48, -141, -94, -207, 19, -79, 55, 44, -77, -113, 104, 80, -16, 254, 37, -326, 174, 142, 96, -81, 63, 171}
}
, {{101, 44, -34, -19, -32, -96, -12, 43, -2, -40, 40, 97, 72, -98, -80, 63, -128, -17, 24, 40, 8, 33, 53, 96, -82, 47, -9, -110, -43, -50, 51, -12, 23, -37, 55, -59, -36, -45, -31, 67, 12, 55, -7, -57, -102, -30, 23, -161, 60, 20, 22, -35, 2, -49, -97, -112, -53, 22, 35, -20, 22, 28, -44, -86}
, {-2, -26, 15, 15, 23, -37, -5, 20, 11, -1, -8, -24, 30, -24, -53, -12, -20, 23, 30, 13, -57, 73, 71, 43, -56, 14, 10, -34, -56, -57, -120, -47, -67, 13, 34, 9, 53, -69, 24, 15, 55, 61, -51, -56, 26, 41, 5, -22, 6, 40, -27, -73, 65, 12, -2, -28, 24, 77, -12, 76, -64, 41, -12, -16}
, {-13, -19, -22, 29, -70, -35, 29, 10, 67, -72, -19, -38, 7, -34, -47, 33, -96, -88, 80, 83, -54, 81, 41, -21, 7, -53, -64, 9, -4, -25, 46, 9, -166, -78, 46, 22, -8, -4, 1, -2, 32, -69, -85, -83, 28, -21, 48, -72, -9, -39, 5, -93, -67, -93, -109, -60, -9, -43, 4, 25, 14, -2, -141, -55}
}
, {{-48, 31, -45, -9, 9, 161, -33, -29, -56, 38, 0, 18, 16, 5, -68, -83, 16, 83, 61, -98, 99, -2, -8, 85, 58, -53, -5, 80, -14, 169, -24, -12, -89, -87, 86, -64, 19, 14, 95, 43, 46, -20, 40, 48, 55, -102, 123, 45, -1, -118, -7, -72, -36, 34, 114, 25, -2, -7, 183, -41, -5, -32, 56, 18}
, {-22, 21, 93, -60, -48, 153, 53, 57, 36, 47, -8, 57, 144, 6, -65, 121, 5, -74, 44, -83, 114, 80, -44, 120, -57, -42, 58, -78, -84, 26, -53, -29, -63, 44, 59, 101, -5, 61, 28, 83, 19, 138, -14, 2, -22, 110, 37, 64, 44, -40, -37, -89, 9, 14, 20, -87, -6, 91, 66, 32, -34, -38, -26, -6}
, {-63, -7, 30, 39, -45, 51, 34, -2, -32, -9, 94, 18, 53, 40, -23, 148, 79, 75, -10, -130, 87, -20, -169, 37, -59, 32, 1, -52, -31, 2, -45, 47, -25, 25, -31, -33, 66, 11, -9, -26, -111, 10, -65, -90, -15, 82, -47, 15, -46, -28, -93, -102, 38, 66, 69, 37, -14, 58, -22, -88, -83, 16, -28, -26}
}
, {{27, 36, 21, 23, 56, 97, -22, -30, -33, 18, 33, 54, -28, 47, -25, 114, 93, 19, -12, 8, -17, -20, 3, -1, 0, -24, 18, 5, 71, 13, -18, 14, 40, 32, 53, 70, 52, -2, -10, 4, -12, 79, -50, -108, -5, -35, 27, 17, 83, -12, -36, -51, -10, 80, -3, 64, 113, -4, 89, 34, 63, 17, 4, -29}
, {-4, 29, -38, -40, -57, 80, 58, -47, -65, 80, 65, -31, 47, 39, 46, 44, 76, -7, 11, -33, -67, 28, -8, -50, -86, -13, -48, 93, 30, 109, 54, 15, 30, 59, 129, 108, -27, 60, 8, 81, -48, 24, -59, 58, -53, 32, -31, 55, 60, -34, 40, 17, -24, 66, 66, 31, 9, 37, 21, 12, 64, -17, 40, 63}
, {-9, 18, -6, 23, 42, 23, 56, -2, -4, 103, 37, 77, -13, 80, -9, 50, 32, 30, -54, -94, -6, 46, -41, 18, -55, -3, -25, 28, 1, 45, 3, 59, 53, 20, 38, 102, -42, -12, -44, 8, -23, 69, 14, 49, -65, 60, 9, 39, 38, -51, 84, -34, -24, 100, -12, 131, 26, 59, -46, -9, 31, 17, 49, 34}
}
, {{40, 94, -16, 8, 35, -32, 60, 110, 103, 38, 85, 51, 32, 100, -109, 69, 10, -56, 37, -66, -43, 10, -45, 19, 19, 55, -7, 74, 20, -36, -44, 65, 63, 50, -42, -50, -11, -3, 215, 38, 48, 54, 40, 7, -70, -21, -3, -88, -17, -117, 103, 159, 28, 54, 70, -5, 1, 69, 151, -78, -40, -5, -45, 86}
, {40, 10, 45, 76, 76, 73, 34, 81, 50, 90, 81, 0, -69, 6, -6, -24, 11, -66, -39, -40, 55, 32, -55, 82, -28, 32, 112, -41, 60, 62, -52, 47, 57, 19, 4, 103, -6, 55, 19, 83, -60, 62, 118, -8, 19, 85, 74, 173, -7, -167, 87, 18, 20, 102, 36, -35, 35, 30, 89, 21, -38, 40, 61, 12}
, {-49, 29, 101, 27, -54, -27, 72, 45, 12, -60, -37, 26, 72, 61, -15, 36, -11, -9, 5, -77, 70, -53, -20, -12, 51, 64, 43, 34, -21, 21, -89, -69, 106, 11, 6, -33, 47, 33, -32, 79, -15, 95, -66, -9, -82, 4, 149, 46, -13, -121, 11, 51, 13, 38, -52, -24, 49, 105, -17, -2, -144, -102, -107, -7}
}
, {{-63, 34, -102, 6, 40, 13, 34, -73, -82, -59, -23, -75, 64, 71, 41, 70, 30, -100, -67, -53, 28, -29, -101, 0, 38, 6, 4, -73, 19, 28, -27, 119, 11, 18, -9, 37, 11, 58, -27, -49, -29, 6, 99, -76, -33, 63, 17, 9, 63, -25, 47, 9, 33, 60, 53, -3, -60, -10, 25, -17, 6, -84, -62, 88}
, {-90, 58, 12, -70, 47, 15, 125, 37, 26, 36, 27, -96, -51, 3, 32, 20, 112, -55, 10, -5, -71, 15, -76, 89, -18, -63, -2, 50, 26, -13, -43, 65, 56, -14, 4, 1, 16, -34, 62, -6, 82, -44, -36, -43, -96, 21, -30, -104, 19, -96, 16, 90, 79, 83, 3, 61, -53, -14, 28, 87, -38, 10, 6, 41}
, {-53, 85, -56, -93, -11, 28, 76, -35, -54, -54, 41, -103, 36, -34, -54, 44, 25, -78, -9, -50, -38, 68, -65, -47, 20, 34, -20, -92, 107, 65, -28, 29, 17, 0, 63, 78, 68, 62, 23, 116, 43, -12, 59, -74, -30, -65, 14, -92, 55, 27, 20, 38, -29, 27, 37, 78, -34, -66, 16, -15, 43, -53, -74, 47}
}
, {{-51, -48, -103, -21, -37, 210, -82, 119, -140, -13, 5, 30, -97, 28, -27, 40, 19, 178, 113, 28, -40, -46, -38, -19, 3, -106, -19, 4, -55, 12, -77, 45, 7, -124, 120, 213, 100, -68, -15, 8, -35, 67, 7, -45, -103, -30, 59, 83, 27, 30, -15, -174, 133, 76, -82, 137, -44, -139, -39, -164, 42, 135, -58, -11}
, {9, -21, -43, 77, -70, 90, -56, -49, -58, 41, -30, 18, 8, -19, -13, 16, -17, 56, -55, 19, 85, 16, 93, -122, -14, 21, -96, 57, -57, 17, 32, -36, -37, 4, 32, 50, 42, -14, 26, -25, 18, -64, -95, -32, -26, -139, -39, 24, 9, -15, 68, -85, -70, 48, 7, 7, -20, -82, 41, -51, 25, 7, -19, -33}
, {25, -2, -66, 0, -158, 94, -45, -93, 36, 70, -14, 125, 65, -41, 19, 60, -93, 73, 12, 46, 41, 4, -26, -42, -13, -97, -41, -178, -27, 49, -3, -55, -164, -6, 167, 5, -114, 79, -128, -44, -60, -105, -128, -23, 15, -19, -6, 29, -54, -28, 24, -71, -35, -39, -2, -38, -53, 58, -38, -130, -8, 68, -146, -44}
}
, {{-13, 8, 101, 44, 41, 27, 19, 27, -13, 27, 29, 74, 18, 92, -51, 114, 35, -53, 28, 12, 28, -66, 43, 72, 45, 117, 78, -65, 29, -33, 31, 147, 78, 87, 50, 4, 56, -21, 21, 53, -7, 53, 56, -52, -61, 66, -7, 68, 61, 10, 66, 61, 0, 26, -69, 0, -133, 81, 51, 103, 64, 96, -32, 71}
, {-9, 63, -2, 50, 41, 37, 4, 27, 97, -17, 43, -47, -3, 98, 8, -56, -11, -79, -24, -40, 7, -69, 33, -12, 38, 63, 21, 30, 65, 61, -68, 25, 138, 24, -26, -6, -10, 78, 58, 94, -73, -16, 40, -1, -40, 53, -18, 4, 41, -35, 42, 31, 19, -19, 67, 64, -48, 88, 20, 64, 87, 38, 23, 90}
, {-79, 48, 72, 94, 52, 87, 13, 32, 147, 38, 22, -13, 126, -36, -6, 21, 8, -66, 39, -16, 120, -46, 96, 72, 58, 15, 1, 7, 34, 70, -73, 137, 140, 31, 92, 81, -87, 139, 23, 135, -89, -20, 23, -79, -22, 56, 31, -5, 35, -64, 85, 14, 51, 36, 83, -24, -98, 145, 86, 84, 69, -16, 23, -12}
}
, {{58, -49, -69, 30, 33, -75, -29, 100, -14, -41, 71, 8, -29, -24, -95, 43, -5, -88, 59, 44, 31, -60, 157, -25, -18, 16, -36, -109, 12, -47, 17, 7, 6, -3, -39, 12, 17, 16, -3, 22, -120, 87, -38, 21, -102, -22, -27, -42, 84, 43, -81, -28, -17, -10, 14, -3, -48, 17, -96, -116, -99, 141, -76, -37}
, {25, -56, -58, -1, 3, -154, 72, -76, 27, -28, 29, 0, 24, -40, 19, -21, -1, -14, 32, 82, -10, -47, 60, 42, -7, -20, -35, -75, 13, 14, 42, -4, 66, -37, -13, 6, 93, 28, 21, -61, -68, -90, 40, -23, -34, 33, -59, 7, -34, 8, -15, -83, -18, -64, 123, -78, -26, 60, -91, 32, -71, -132, -6, -58}
, {53, -47, -14, 28, 77, -56, -38, -47, 0, 94, 74, 85, -4, -17, 60, -69, -99, 129, -55, -27, -30, -64, 91, 17, -16, -28, -10, 67, -102, -60, 19, -16, 97, -10, -91, -2, 24, -34, -87, -79, -105, -70, 2, -18, -16, -4, -113, 136, -149, 30, -84, -49, -57, -29, 57, -48, -18, 75, -89, 37, -48, 6, 44, 49}
}
, {{-88, -1, -40, 11, 5, 35, -12, -51, -101, -32, 74, -5, -63, 42, -101, 44, 50, 4, 18, 8, -25, 17, 3, 75, 22, -7, -33, -42, -54, -121, -69, 41, -57, -61, -12, -20, 42, 81, 64, -48, -71, -18, -10, -42, 0, -59, -6, 48, 7, -9, -69, 16, -52, -56, -41, 2, -7, -114, 55, -86, 15, 20, -65, -11}
, {-60, 31, 9, -96, 39, 32, 38, -67, -54, 19, 71, 0, 57, 29, -39, -90, 37, -48, -23, -79, -4, -11, -24, 59, 20, -53, -19, -26, 38, -9, -3, 101, 3, -37, 15, 28, -24, -6, 61, 52, -24, 16, -24, -34, 23, -7, -51, -44, 11, -35, 109, 58, 74, -22, 23, -5, -46, -17, 30, 7, -59, -58, 10, -69}
, {-27, 98, 125, 41, 49, -14, 116, -53, 24, 95, 92, 15, 41, 57, -11, -59, 63, -61, -54, 11, -5, 5, 31, 93, -103, 146, 131, 131, 17, -17, -41, 33, 37, 24, 28, -1, 67, 5, 25, 108, -18, 88, 192, -74, 56, 106, 14, -11, 26, -127, 158, 14, 87, -2, 63, -40, 26, 168, 27, 117, 11, -30, -9, 51}
}
, {{-54, 53, 76, 26, -34, 13, -25, -17, 78, -78, -75, -104, 31, 69, 158, -34, -31, 16, -40, -120, -130, -119, -6, -70, -71, 3, -94, 18, -34, 9, 14, 8, 62, 0, -51, 5, -49, 2, -21, 3, 13, 0, -40, -27, 76, 42, -99, 74, -58, -8, -66, -60, -57, -68, -86, 16, -17, -64, -2, 4, -67, -159, -50, -11}
, {11, -36, -9, -43, -62, 67, -24, -15, -73, 34, 47, -65, 2, -72, -45, -28, -3, 85, 19, -28, -112, -71, 35, 30, -34, 65, 4, -26, -27, -61, 31, 6, 32, 25, -24, -29, -12, -21, 49, 45, 110, 9, -85, -43, -51, -26, -45, -16, 15, 99, 72, -49, -76, -61, -46, 67, -4, -43, 31, -4, 111, -48, -57, -25}
, {-23, -31, 42, -3, 17, -48, 39, 24, 39, -39, -32, -59, -37, -47, 49, -86, -81, -1, -5, 14, 17, -31, 50, -77, -11, 127, -13, -67, -68, -32, 32, -5, -10, -60, -65, 27, -49, -44, 90, -22, 45, -45, -44, -97, 32, 19, -87, -55, 35, 19, -93, 39, -31, 41, 2, -39, -15, 97, -18, 14, -6, -43, -6, 1}
}
, {{32, -55, -282, -11, 13, 286, -105, -124, -237, -195, -131, -3, -7, -44, -122, 50, -6, 73, 15, 0, 8, 55, 29, -14, 117, -97, -174, 30, -42, 121, 41, 45, 91, -91, 252, -94, -34, 19, 42, -57, 108, -162, 103, -147, 3, -179, -2, -259, -17, 137, -38, -102, -85, -26, 72, 121, -6, -147, -42, -7, 89, 43, -42, 53}
, {56, -77, -52, 2, 1, -68, 74, 94, -15, -105, -3, -12, 40, 18, -51, 1, -27, -59, -50, 52, 61, -75, -32, 39, 6, 68, 2, -60, 50, -38, -94, 54, -100, 82, 60, -89, -44, 22, -74, 5, 47, 14, 2, -30, -9, -4, -29, 1, -2, 28, -68, -16, 32, 37, 37, 6, 14, -21, -131, -62, -32, 96, -35, -50}
, {29, 19, -126, -72, -45, -12, -14, -26, -34, 38, 28, 97, -26, 11, -98, 84, -25, 145, -33, 63, -34, 4, -57, -10, 16, -136, -136, -47, 3, 47, 47, 83, 62, -53, -37, -56, 115, 5, -118, -26, 119, 52, -93, -15, -51, 34, -66, -180, -121, 83, 11, -26, 46, 106, 9, 69, -119, -71, -44, -11, 83, 62, 67, -43}
}
, {{26, -70, -110, -104, -60, 100, -56, 103, -84, -50, 68, 88, -34, -81, 34, -132, 70, 115, -50, -2, -4, 57, 31, 54, -90, 53, -52, -9, -11, -75, 106, 62, -43, -21, -4, 75, -2, -97, 8, 43, 63, -11, -7, -56, -21, 80, 42, 22, 70, 57, -11, -41, 81, -24, -45, 39, -70, -37, 5, -52, -4, 152, -88, 20}
, {-38, 60, -70, 25, -6, 29, -24, -22, -30, 75, 62, 0, -42, 43, 9, -45, -17, 5, -63, 61, 26, 84, 65, -20, -15, 10, -16, -7, -49, -44, 89, 22, -13, 12, -65, -85, 21, -87, 23, -11, 47, -5, -39, 43, 29, -21, -67, -67, -91, 26, -45, -31, -95, -95, 34, 56, -45, 8, -3, -6, -42, -93, -23, 24}
, {1, -13, 29, 58, -23, 26, -37, 5, -38, 122, -65, 11, -33, -7, 19, -30, -74, -79, 22, 93, -21, -34, 121, 35, -34, -17, 97, 48, -106, -139, 50, 46, -84, 9, 6, -96, -66, 69, 16, -24, -51, -70, 92, -39, 145, -46, -5, 0, -68, 0, -17, -20, -18, -138, -60, -143, -63, -31, 75, 41, -17, -55, -13, 68}
}
}
;

#undef INPUT_CHANNELS
#undef CONV_FILTERS
#undef CONV_KERNEL_SIZE